{"learner":{"attributes":{"best_iteration":"24","best_score":"0.8447222222222223","scikit_learn":"{\"_estimator_type\": \"classifier\"}"},"feature_names":["age","hypertension","heart_disease","avg_glucose_level","bmi","gender_Male","smoking_status_formerly smoked","smoking_status_never smoked","smoking_status_smokes"],"feature_types":["float","float","float","float","float","float","float","float","float"],"gradient_booster":{"model":{"cats":{"enc":[],"feature_segments":[],"sorted_idx":[]},"gbtree_model_param":{"num_parallel_tree":"1","num_trees":"75"},"iteration_indptr":[0,1,2,3,4,5,6,7,8,9,10,11,12,13,14,15,16,17,18,19,20,21,22,23,24,25,26,27,28,29,30,31,32,33,34,35,36,37,38,39,40,41,42,43,44,45,46,47,48,49,50,51,52,53,54,55,56,57,58,59,60,61,62,63,64,65,66,67,68,69,70,71,72,73,74,75],"tree_info":[0,0,0,0,0,0,0,0,0,0,0,0,0,0,0,0,0,0,0,0,0,0,0,0,0,0,0,0,0,0,0,0,0,0,0,0,0,0,0,0,0,0,0,0,0,0,0,0,0,0,0,0,0,0,0,0,0,0,0,0,0,0,0,0,0,0,0,0,0,0,0,0,0,0,0],"trees":[{"base_weights":[-3.6656387E-2,-1.8232155E0,7.323363E-1,-1.8984346E0,-1.0906326E0,2.822267E-1,1.177154E0,-7.5718737E-1,-1.9433206E0,-9.259259E-2,-4.71034E-1,-5.121731E-1,4.2306703E-1,9.6989226E-1,1.3357934E0,-8.75E-2,4.760573E-2,-9.9581E-2,-7.260483E-2,7.147246E-2,-9.1044776E-2,-5.501773E-2,1.4175624E-2,1.4890023E-2,6.0384333E-2,-7.3913045E-2,5.1196374E-2,5.9190877E-2,7.546034E-2],"categories":[],"categories_nodes":[],"categories_segments":[],"categories_sizes":[],"default_left":[0,0,0,0,0,0,0,0,0,0,0,0,0,0,0,0,0,0,0,0,0,0,0,0,0,0,0,0,0],"id":0,"left_children":[1,3,5,7,9,11,13,15,17,-1,19,21,23,25,27,-1,-1,-1,-1,-1,-1,-1,-1,-1,-1,-1,-1,-1,-1],"loss_changes":[2.095843E3,2.2189087E1,2.1303851E2,1.9014282E1,2.051429E1,5.9856483E1,1.5678528E1,3.3273716E1,5.0961914E0,0E0,7.4500854E1,3.8286007E1,4.3962517E1,3.3733353E1,5.2160034E0,0E0,0E0,0E0,0E0,0E0,0E0,0E0,0E0,0E0,0E0,0E0,0E0,0E0,0E0],"parents":[2147483647,0,0,1,1,2,2,3,3,4,4,5,5,6,6,7,7,8,8,10,10,11,11,12,12,13,13,14,14],"right_children":[2,4,6,8,10,12,14,16,18,-1,20,22,24,26,28,-1,-1,-1,-1,-1,-1,-1,-1,-1,-1,-1,-1,-1,-1],"split_conditions":[2.0939672E-1,7.68848E-2,1.0928096E0,-1.848955E0,1.636095E-1,-3.236038E-1,1.4903452E0,-1.8524888E0,1.3175358E0,-9.259259E-2,2.5335932E-1,7.394444E-1,1E0,-7.979957E-1,1E0,-8.75E-2,4.760573E-2,-9.9581E-2,-7.260483E-2,7.147246E-2,-9.1044776E-2,-5.501773E-2,1.4175624E-2,1.4890023E-2,6.0384333E-2,-7.3913045E-2,5.1196374E-2,5.9190877E-2,7.546034E-2],"split_indices":[0,0,0,0,4,4,0,0,4,0,4,0,2,4,5,0,0,0,0,0,0,0,0,0,0,0,0,0,0],"split_type":[0,0,0,0,0,0,0,0,0,0,0,0,0,0,0,0,0,0,0,0,0,0,0,0,0,0,0,0,0],"sum_hessian":[1.5225667E3,4.575377E2,1.0650289E3,4.1276886E2,4.4768845E1,5.3058417E2,5.3444476E2,1.6634422E1,3.9613443E2,1.875E1,2.6018845E1,7.930653E1,4.5127765E2,2.363392E2,2.9810553E2,1.05E1,6.1344223E0,3.565E2,3.9634422E1,1.0768845E1,1.525E1,4.5268845E1,3.403769E1,3.909334E2,6.0344223E1,4.25E0,2.320892E2,1.651294E2,1.3297614E2],"tree_param":{"num_deleted":"0","num_feature":"9","num_nodes":"29","size_leaf_vector":"1"}},{"base_weights":[1.476862E-2,-1.6544861E0,7.2805816E-1,-1.7293762E0,-9.992491E-2,2.7254984E-1,1.145056E0,-1.4363463E0,-9.488491E-2,-8.440433E-2,7.17443E-2,-1.5966518E-1,6.4918643E-1,9.35662E-1,1.2754278E0,-7.6960504E-2,5.1706027E-2,3.7703458E-3,-4.6848577E-2,-1.3264067E-2,3.8954232E-2,-6.5955184E-2,4.8891913E-2,6.5856606E-2,3.0395312E-2],"categories":[],"categories_nodes":[],"categories_segments":[],"categories_sizes":[],"default_left":[0,0,0,0,0,0,0,0,0,0,0,0,0,0,0,0,0,0,0,0,0,0,0,0,0],"id":1,"left_children":[1,3,5,7,9,11,13,15,-1,-1,-1,17,19,21,23,-1,-1,-1,-1,-1,-1,-1,-1,-1,-1],"loss_changes":[1.8512892E3,5.3934326E1,2.0644531E2,1.781128E1,5.9662987E1,8.522727E1,1.372229E1,4.5121735E1,0E0,0E0,0E0,4.4790123E1,3.3516747E1,2.3205215E1,8.432983E0,0E0,0E0,0E0,0E0,0E0,0E0,0E0,0E0,0E0,0E0],"parents":[2147483647,0,0,1,1,2,2,3,3,4,4,5,5,6,6,7,7,11,11,12,12,13,13,14,14],"right_children":[2,4,6,8,10,12,14,16,-1,-1,-1,18,20,22,24,-1,-1,-1,-1,-1,-1,-1,-1,-1,-1],"split_conditions":[2.0939672E-1,2.1252842E0,1.0928096E0,-5.270732E-1,8.2256055E-1,-1.03759654E-1,1.4461746E0,-5.304311E-1,-9.488491E-2,-8.440433E-2,7.17443E-2,5.226088E-1,-2.6718962E-1,-8.492813E-1,6.89287E-1,-7.6960504E-2,5.1706027E-2,3.7703458E-3,-4.6848577E-2,-1.3264067E-2,3.8954232E-2,-6.5955184E-2,4.8891913E-2,6.5856606E-2,3.0395312E-2],"split_indices":[0,4,0,3,3,3,0,3,0,0,0,4,4,4,4,0,0,0,0,0,0,0,0,0,0],"split_type":[0,0,0,0,0,0,0,0,0,0,0,0,0,0,0,0,0,0,0,0,0,0,0,0,0],"sum_hessian":[1.5518228E3,4.639944E2,1.0878284E3,4.4250812E2,2.1486269E1,5.210925E2,5.667359E2,1.6666417E2,2.7584393E2,1.0485986E1,1.1000283E1,2.4304578E2,2.7804672E2,2.2216898E2,3.4456693E2,1.6054494E2,6.1192393E0,1.8765103E2,5.5394733E1,3.4388996E1,2.4365773E2,3.2455652E0,2.189234E2,3.2293158E2,2.1635336E1],"tree_param":{"num_deleted":"0","num_feature":"9","num_nodes":"25","size_leaf_vector":"1"}},{"base_weights":[2.1014804E-2,-1.3424294E0,8.4618115E-1,-1.6208131E0,-3.5279325E-1,4.7453526E-1,1.1001962E0,-1.7660593E0,-1.244152E0,-1.0489179E0,2.9878592E-1,-5.0824918E-2,8.66032E-1,9.940091E-1,1.3330618E0,-3.240475E-2,-9.111424E-2,1.799264E-2,-6.795204E-2,-2.7513448E-2,-9.425994E-2,2.9806305E-2,-3.366164E-2,3.876388E-3,-8.6464435E-2,5.6440335E-2,-3.8818088E-3,-6.881253E-2,5.0770234E-2,-5.2198112E-2,6.8114385E-2],"categories":[],"categories_nodes":[],"categories_segments":[],"categories_sizes":[],"default_left":[0,0,0,0,0,0,0,0,0,0,0,0,0,0,0,0,0,0,0,0,0,0,0,0,0,0,0,0,0,0,0],"id":2,"left_children":[1,3,5,7,9,11,13,15,17,19,21,23,25,27,29,-1,-1,-1,-1,-1,-1,-1,-1,-1,-1,-1,-1,-1,-1,-1,-1],"loss_changes":[1.7601445E3,1.6164783E2,9.122296E1,2.1867065E1,6.007802E1,8.199152E1,1.2299377E1,1.8868896E1,2.5257385E1,2.5077972E1,2.0558126E1,3.7148182E1,5.6748947E1,2.2519684E1,1.4398712E1,0E0,0E0,0E0,0E0,0E0,0E0,0E0,0E0,0E0,0E0,0E0,0E0,0E0,0E0,0E0,0E0],"parents":[2147483647,0,0,1,1,2,2,3,3,4,4,5,5,6,6,7,7,8,8,9,9,10,10,11,11,12,12,13,13,14,14],"right_children":[2,4,6,8,10,12,14,16,18,20,22,24,26,28,30,-1,-1,-1,-1,-1,-1,-1,-1,-1,-1,-1,-1,-1,-1,-1,-1],"split_conditions":[4.7442055E-1,2.0939672E-1,1.0928096E0,-2.3230968E-1,1E0,-1.11146934E-1,1E0,-1.848955E0,-1.0629869E0,3.3028775E-1,1E0,1.1508576E0,1E0,-1.0739558E0,-9.133883E-1,-3.240475E-2,-9.111424E-2,1.799264E-2,-6.795204E-2,-2.7513448E-2,-9.425994E-2,2.9806305E-2,-3.366164E-2,3.876388E-3,-8.6464435E-2,5.6440335E-2,-3.8818088E-3,-6.881253E-2,5.0770234E-2,-5.2198112E-2,6.8114385E-2],"split_indices":[0,0,0,0,7,3,1,0,3,4,5,4,7,3,4,0,0,0,0,0,0,0,0,0,0,0,0,0,0,0,0],"split_type":[0,0,0,0,0,0,0,0,0,0,0,0,0,0,0,0,0,0,0,0,0,0,0,0,0,0,0,0,0,0,0],"sum_hessian":[1.5614635E3,5.8836017E2,9.731034E2,4.5844373E2,1.2991646E2,3.9682156E2,5.7628186E2,3.2686612E2,1.3157758E2,6.236893E1,6.754752E1,1.6999965E2,2.268219E2,4.0122525E2,1.7505658E2,1.6551563E1,3.1031458E2,8.580714E0,1.22996864E2,4.0629677E1,2.1739252E1,5.2169086E1,1.5378434E1,1.5925229E2,1.074736E1,1.7718774E2,4.963415E1,2.7395995E0,3.9848566E2,1.4936383E0,1.7356294E2],"tree_param":{"num_deleted":"0","num_feature":"9","num_nodes":"31","size_leaf_vector":"1"}},{"base_weights":[-1.218569E-2,-3.3190775E-1,9.505521E-1,-1.150844E0,-1.8575548E-1,1.0478366E-1,1.0390974E0,-4.9076784E-1,-8.8248596E-2,1.6169294E-3,-7.461609E-1,-8.7846863E-1,1.2338794E0,1.1141114E0,4.265213E-1,-8.50557E-2,2.477251E-3,-5.071355E-3,3.742216E-2,-4.747571E-2,9.096919E-3,-8.616971E-2,3.2965045E-2,7.387231E-2,-4.780086E-2,4.9407672E-2,7.057991E-2,-8.2767844E-2,4.4919062E-2],"categories":[],"categories_nodes":[],"categories_segments":[],"categories_sizes":[],"default_left":[0,0,0,0,0,0,0,0,0,0,0,0,0,0,0,0,0,0,0,0,0,0,0,0,0,0,0,0,0],"id":3,"left_children":[1,3,5,7,9,11,13,15,-1,17,19,21,23,25,27,-1,-1,-1,-1,-1,-1,-1,-1,-1,-1,-1,-1,-1,-1],"loss_changes":[4.7295084E2,1.3773027E2,2.8523865E1,6.93905E1,1.02961586E2,4.3781044E1,1.5213654E1,5.6449203E1,0E0,5.6778946E1,4.6629852E1,2.9213997E1,1.1878916E1,9.443024E0,4.1763134E1,0E0,0E0,0E0,0E0,0E0,0E0,0E0,0E0,0E0,0E0,0E0,0E0,0E0,0E0],"parents":[2147483647,0,0,1,1,2,2,3,3,4,4,5,5,6,6,7,7,9,9,10,10,11,11,12,12,13,13,14,14],"right_children":[2,4,6,8,10,12,14,16,-1,18,20,22,24,26,28,-1,-1,-1,-1,-1,-1,-1,-1,-1,-1,-1,-1,-1,-1],"split_conditions":[1.17715E0,-8.492813E-1,-4.0053222E-1,-5.344605E-1,4.713232E-1,1E0,1.5226783E0,-7.983879E-1,-8.8248596E-2,1E0,1E0,1E0,1E0,1E0,1.9073203E0,-8.50557E-2,2.477251E-3,-5.071355E-3,3.742216E-2,-4.747571E-2,9.096919E-3,-8.616971E-2,3.2965045E-2,7.387231E-2,-4.780086E-2,4.9407672E-2,7.057991E-2,-8.2767844E-2,4.4919062E-2],"split_indices":[3,4,4,3,4,1,4,3,0,1,1,8,2,2,4,0,0,0,0,0,0,0,0,0,0,0,0,0,0],"split_type":[0,0,0,0,0,0,0,0,0,0,0,0,0,0,0,0,0,0,0,0,0,0,0,0,0,0,0,0,0],"sum_hessian":[1.5334725E3,1.1519099E3,3.8156265E2,1.7288283E2,9.790271E2,3.647126E1,3.4509137E2,8.462499E1,8.8257835E1,7.3483093E2,2.4419615E2,1.9672651E1,1.6798609E1,3.0634888E2,3.8742508E1,2.5123549E1,5.9501442E1,6.468742E2,8.7956764E1,2.0027898E2,4.391718E1,1.257969E1,7.0929604E0,1.5556384E1,1.242224E0,2.1977652E2,8.6572365E1,6.4633846E0,3.2279125E1],"tree_param":{"num_deleted":"0","num_feature":"9","num_nodes":"29","size_leaf_vector":"1"}},{"base_weights":[4.951113E-2,-2.0532891E-1,9.0870976E-1,-3.742875E-1,8.2109004E-1,7.7596176E-1,1.2665942E0,-5.54945E-1,2.643986E-1,1.3603889E0,2.2590111E-1,1.0568053E0,5.534008E-1,-6.0421295E-2,1.3386681E0,-3.2158874E-2,3.0751351E-2,-3.5556124E-3,4.5518782E-2,3.143675E-2,7.032149E-2,-2.0665366E-2,5.218176E-2,4.608291E-2,6.1571307E-2,1.8115161E-2,4.603339E-2,4.5161653E-2,7.12961E-2],"categories":[],"categories_nodes":[],"categories_segments":[],"categories_sizes":[],"default_left":[0,0,0,0,0,0,0,0,0,0,0,0,0,0,0,0,0,0,0,0,0,0,0,0,0,0,0,0,0],"id":4,"left_children":[1,3,5,7,9,11,13,15,17,19,21,23,25,-1,27,-1,-1,-1,-1,-1,-1,-1,-1,-1,-1,-1,-1,-1,-1],"loss_changes":[3.4549127E2,2.1154672E2,1.5673004E1,1.2093054E2,5.4911964E1,1.58207855E1,1.9423523E1,8.482672E1,5.0310978E1,1.712265E0,4.4451653E1,1.0459747E0,1.0180771E1,0E0,1.6128235E0,0E0,0E0,0E0,0E0,0E0,0E0,0E0,0E0,0E0,0E0,0E0,0E0,0E0,0E0],"parents":[2147483647,0,0,1,1,2,2,3,3,4,4,5,5,6,6,7,7,8,8,9,9,10,10,11,11,12,12,14,14],"right_children":[2,4,6,8,10,12,14,16,18,20,22,24,26,-1,28,-1,-1,-1,-1,-1,-1,-1,-1,-1,-1,-1,-1,-1,-1],"split_conditions":[1.2610964E0,1E0,1E0,1E0,-6.622828E-1,2.109738E0,1.9805727E0,1E0,-6.458468E-2,-1.0739558E0,1E0,1E0,1E0,-6.0421295E-2,2.2870328E0,-3.2158874E-2,3.0751351E-2,-3.5556124E-3,4.5518782E-2,3.143675E-2,7.032149E-2,-2.0665366E-2,5.218176E-2,4.608291E-2,6.1571307E-2,1.8115161E-2,4.603339E-2,4.5161653E-2,7.12961E-2],"split_indices":[3,1,2,6,3,3,3,2,3,3,6,1,1,0,3,0,0,0,0,0,0,0,0,0,0,0,0,0,0],"split_type":[0,0,0,0,0,0,0,0,0,0,0,0,0,0,0,0,0,0,0,0,0,0,0,0,0,0,0,0,0],"sum_hessian":[1.5751085E3,1.2156776E3,3.594309E2,1.0446681E3,1.7100955E2,2.6564792E2,9.3782974E1,8.14482E2,2.3018613E2,8.870541E1,8.2304146E1,1.14960205E2,1.5068771E2,1.9845281E0,9.179845E1,7.579939E2,5.648805E1,1.5237808E2,7.780803E1,6.553026E0,8.215238E1,4.6611E1,3.5693146E1,7.0113335E1,4.4846867E1,1.010755E2,4.961222E1,1.8166649E1,7.36318E1],"tree_param":{"num_deleted":"0","num_feature":"9","num_nodes":"29","size_leaf_vector":"1"}},{"base_weights":[-8.461102E-3,-1.4492306E0,6.324896E-1,-1.5165204E0,-1.4173704E-1,2.4837266E-1,9.773564E-1,-1.6484373E0,-1.195696E0,-7.7928394E-2,7.160186E-2,-9.153384E-2,5.5704397E-1,1.0377425E0,5.042753E-1,-2.6799107E-2,-8.530202E-2,2.4489548E-2,-6.523744E-2,-5.9164613E-2,2.9785454E-3,-1.4706227E-2,3.4363206E-2,3.4414656E-2,5.702723E-2,2.0956756E-4,7.5885996E-2],"categories":[],"categories_nodes":[],"categories_segments":[],"categories_sizes":[],"default_left":[0,0,0,0,0,0,0,0,0,0,0,0,0,0,0,0,0,0,0,0,0,0,0,0,0,0,0],"id":5,"left_children":[1,3,5,7,9,11,13,15,17,-1,-1,19,21,23,25,-1,-1,-1,-1,-1,-1,-1,-1,-1,-1,-1,-1],"loss_changes":[1.4131606E3,4.1131042E1,1.399382E2,1.6001709E1,5.845924E1,5.2857666E1,1.5143372E1,1.8715515E1,2.5952972E1,0E0,0E0,3.9815094E1,2.9548965E1,1.6534424E1,3.345603E1,0E0,0E0,0E0,0E0,0E0,0E0,0E0,0E0,0E0,0E0,0E0,0E0],"parents":[2147483647,0,0,1,1,2,2,3,3,4,4,5,5,6,6,7,7,8,8,11,11,12,12,13,13,14,14],"right_children":[2,4,6,8,10,12,14,16,18,-1,-1,20,22,24,26,-1,-1,-1,-1,-1,-1,-1,-1,-1,-1,-1,-1],"split_conditions":[2.5356737E-1,2.1252842E0,1.0928096E0,-2.3230968E-1,8.2256055E-1,-1.11146934E-1,6.89287E-1,-1.848955E0,-1.0629869E0,-7.7928394E-2,7.160186E-2,-4.2617503E-1,-2.6718962E-1,1.3578334E0,2.0611773E0,-2.6799107E-2,-8.530202E-2,2.4489548E-2,-6.523744E-2,-5.9164613E-2,2.9785454E-3,-1.4706227E-2,3.4363206E-2,3.4414656E-2,5.702723E-2,2.0956756E-4,7.5885996E-2],"split_indices":[0,4,0,0,3,3,4,0,3,0,0,4,4,0,4,0,0,0,0,0,0,0,0,0,0,0,0],"split_type":[0,0,0,0,0,0,0,0,0,0,0,0,0,0,0,0,0,0,0,0,0,0,0,0,0,0,0],"sum_hessian":[1.5272964E3,4.6966412E2,1.0576323E3,4.46448E2,2.3216135E1,5.0156415E2,5.560682E2,3.1196625E2,1.3448175E2,1.2224873E1,1.0991262E1,2.3920673E2,2.6235742E2,4.91536E2,6.453215E1,1.611937E1,2.958469E2,7.854106E0,1.2662764E2,2.7836523E1,2.113702E2,3.4561592E1,2.2779584E2,1.1435579E2,3.771802E2,4.4218662E1,2.0313484E1],"tree_param":{"num_deleted":"0","num_feature":"9","num_nodes":"27","size_leaf_vector":"1"}},{"base_weights":[3.154177E-2,-1.3603745E0,6.4292717E-1,-1.5948611E0,-8.5824484E-1,2.2759737E-1,9.9415755E-1,-5.1481324E-1,-8.247812E-2,-1.0240988E0,5.740168E-1,4.6285218E-1,-3.5994187E-1,8.951104E-1,1.1845818E0,-7.463356E-2,5.303908E-2,-3.0368192E-2,-8.391159E-2,-6.458046E-2,7.165593E-2,-8.109392E-3,4.1334514E-2,-3.2258566E-2,1.9943917E-2,6.1924722E-2,3.833577E-2,-5.171137E-2,6.049511E-2],"categories":[],"categories_nodes":[],"categories_segments":[],"categories_sizes":[],"default_left":[0,0,0,0,0,0,0,0,0,0,0,0,0,0,0,0,0,0,0,0,0,0,0,0,0,0,0,0,0],"id":6,"left_children":[1,3,5,7,9,11,13,15,-1,17,19,21,23,25,27,-1,-1,-1,-1,-1,-1,-1,-1,-1,-1,-1,-1,-1,-1],"loss_changes":[1.3133053E3,5.3403076E1,1.560719E2,1.7591309E1,3.726893E1,6.842418E1,9.358215E0,2.9450413E1,0E0,3.6041077E1,2.9796429E1,8.044563E1,3.1091549E1,1.5682373E1,1.277536E1,0E0,0E0,0E0,0E0,0E0,0E0,0E0,0E0,0E0,0E0,0E0,0E0,0E0,0E0],"parents":[2147483647,0,0,1,1,2,2,3,3,4,4,5,5,6,6,7,7,9,9,10,10,11,11,12,12,13,13,14,14],"right_children":[2,4,6,8,10,12,14,16,-1,18,20,22,24,26,28,-1,-1,-1,-1,-1,-1,-1,-1,-1,-1,-1,-1,-1,-1],"split_conditions":[2.5356737E-1,-2.3230968E-1,1.0928096E0,-1.848955E0,2.1252842E0,1E0,1E0,-1.8524888E0,-8.247812E-2,-2.7232397E-1,8.2256055E-1,-2.0427144E-1,1E0,-5.415677E-1,-9.133883E-1,-7.463356E-2,5.303908E-2,-3.0368192E-2,-8.391159E-2,-6.458046E-2,7.165593E-2,-8.109392E-3,4.1334514E-2,-3.2258566E-2,1.9943917E-2,6.1924722E-2,3.833577E-2,-5.171137E-2,6.049511E-2],"split_indices":[0,0,0,0,4,7,1,0,0,3,3,3,1,4,4,0,0,0,0,0,0,0,0,0,0,0,0,0,0],"split_type":[0,0,0,0,0,0,0,0,0,0,0,0,0,0,0,0,0,0,0,0,0,0,0,0,0,0,0,0,0],"sum_hessian":[1.5402129E3,4.6949506E2,1.0707179E3,3.1781573E2,1.5167932E2,4.9172516E2,5.7899274E2,1.6073292E1,3.0174243E2,1.3632101E2,1.5358318E1,3.513575E2,1.4036766E2,3.8650635E2,1.9248637E2,9.966654E0,6.106638E0,8.5037865E1,5.1283142E1,4.6043487E0,1.075397E1,1.295809E2,2.2177661E2,1.0218316E2,3.81845E1,1.0165848E2,2.8484787E2,1.4974543E0,1.909889E2],"tree_param":{"num_deleted":"0","num_feature":"9","num_nodes":"29","size_leaf_vector":"1"}},{"base_weights":[6.7084203E-3,-1.4163357E0,5.941115E-1,-8.0096126E-2,-9.786725E-1,2.2189867E-1,9.230538E-1,3.7891084E-1,-1.0710851E0,-5.743502E-1,3.5749292E-1,-6.0954988E-2,9.336559E-1,-5.8672827E-2,6.0951907E-2,-5.879281E-2,1.5859721E-2,1.8120596E-2,-5.318725E-2,-8.236879E-2,2.0142954E-2,4.053749E-2,5.5315267E-2],"categories":[],"categories_nodes":[],"categories_segments":[],"categories_sizes":[],"default_left":[0,0,0,0,0,0,0,0,0,0,0,0,0,0,0,0,0,0,0,0,0,0,0],"id":7,"left_children":[1,3,5,-1,7,9,11,13,15,17,19,-1,21,-1,-1,-1,-1,-1,-1,-1,-1,-1,-1],"loss_changes":[1.2802476E3,3.3995667E1,1.324234E2,0E0,1.78098E1,5.5431747E1,1.4766754E1,1.4987023E1,1.9287827E1,3.4901405E1,4.075966E1,0E0,1.0814087E1,0E0,0E0,0E0,0E0,0E0,0E0,0E0,0E0,0E0,0E0],"parents":[2147483647,0,0,1,1,2,2,4,4,5,5,6,6,7,7,8,8,9,9,10,10,12,12],"right_children":[2,4,6,-1,8,10,12,14,16,18,20,-1,22,-1,-1,-1,-1,-1,-1,-1,-1,-1,-1],"split_conditions":[2.0939672E-1,-2.3230968E-1,1.0928096E0,-8.0096126E-2,-1.0629869E0,-3.236038E-1,-1.221102E0,-1.0851487E0,2.1252842E0,-6.566864E-1,-9.7187704E-1,-6.0954988E-2,5.2684546E-1,-5.8672827E-2,6.0951907E-2,-5.879281E-2,1.5859721E-2,1.8120596E-2,-5.318725E-2,-8.236879E-2,2.0142954E-2,4.053749E-2,5.5315267E-2],"split_indices":[0,0,0,0,3,4,4,3,4,3,3,0,3,0,0,0,0,0,0,0,0,0,0],"split_type":[0,0,0,0,0,0,0,0,0,0,0,0,0,0,0,0,0,0,0,0,0,0,0],"sum_hessian":[1.5285688E3,4.4599167E2,1.0825771E3,3.103855E2,1.3560619E2,5.0906232E2,5.735149E2,8.34621E0,1.2725997E2,7.336835E1,4.3569397E2,1.9824548E0,5.715324E2,2.7217968E0,5.6244125E0,1.1854323E2,8.716743E0,2.5310375E1,4.8057972E1,8.4686575E0,4.272253E2,3.3885294E2,2.3267949E2],"tree_param":{"num_deleted":"0","num_feature":"9","num_nodes":"23","size_leaf_vector":"1"}},{"base_weights":[3.131111E-2,-1.3330603E0,5.828577E-1,-1.432656E0,-5.41191E-1,2.4731356E-1,8.914823E-1,-1.4718632E0,-2.6008466E-1,-7.604656E-2,9.497774E-2,3.1713653E-1,-9.296634E-2,6.8486196E-1,9.82208E-1,-2.2349318E-2,-7.575834E-2,-6.8525545E-2,4.807443E-2,8.055892E-2,-3.8035955E-2,-2.0022897E-2,2.477225E-2,3.939692E-2,-1.1087522E-2,5.049753E-2,1.2704934E-2],"categories":[],"categories_nodes":[],"categories_segments":[],"categories_sizes":[],"default_left":[0,0,0,0,0,0,0,0,0,0,0,0,0,0,0,0,0,0,0,0,0,0,0,0,0,0,0],"id":8,"left_children":[1,3,5,7,9,11,13,15,17,-1,19,21,-1,23,25,-1,-1,-1,-1,-1,-1,-1,-1,-1,-1,-1,-1],"loss_changes":[1.1570464E3,3.3746704E1,1.130524E2,1.745996E1,3.2541924E1,7.8349045E1,9.671265E0,1.5816223E1,2.1664482E1,0E0,4.4467293E1,6.5685104E1,0E0,1.6970451E1,7.5424194E0,0E0,0E0,0E0,0E0,0E0,0E0,0E0,0E0,0E0,0E0,0E0,0E0],"parents":[2147483647,0,0,1,1,2,2,3,3,4,4,5,5,6,6,7,7,8,8,10,10,11,11,13,13,14,14],"right_children":[2,4,6,8,10,12,14,16,18,-1,20,22,-1,24,26,-1,-1,-1,-1,-1,-1,-1,-1,-1,-1,-1,-1],"split_conditions":[2.0939672E-1,7.68848E-2,1.0928096E0,1E0,9.95025E-2,1.8047491E0,1.3578334E0,-1.848955E0,1E0,-7.604656E-2,2.5335932E-1,-2.0821118E-1,-9.296634E-2,1.3136626E0,9.970007E-1,-2.2349318E-2,-7.575834E-2,-6.8525545E-2,4.807443E-2,8.055892E-2,-3.8035955E-2,-2.0022897E-2,2.477225E-2,3.939692E-2,-1.1087522E-2,5.049753E-2,1.2704934E-2],"split_indices":[0,0,0,1,4,4,0,0,8,0,4,4,0,0,4,0,0,0,0,0,0,0,0,0,0,0,0],"split_type":[0,0,0,0,0,0,0,0,0,0,0,0,0,0,0,0,0,0,0,0,0,0,0,0,0,0,0],"sum_hessian":[1.5345249E3,4.4114084E2,1.093384E3,3.9077774E2,5.0363102E1,5.251405E2,5.682435E2,3.7776367E2,1.3014093E1,1.9006199E1,3.1356903E1,5.0952682E2,1.5613687E1,1.7729405E2,3.909495E2,1.6002882E1,3.6176077E2,6.7213836E0,6.29271E0,1.0834693E1,2.0522211E1,1.01037415E2,4.084894E2,1.5937088E2,1.7923166E1,3.7604086E2,1.4908604E1],"tree_param":{"num_deleted":"0","num_feature":"9","num_nodes":"27","size_leaf_vector":"1"}},{"base_weights":[3.6785346E-2,-1.3285018E0,5.6900036E-1,-1.3652174E0,7.2447413E-1,1.9813387E-1,8.965386E-1,-7.5663745E-2,-1.0121242E0,-4.4819817E-2,7.293361E-2,-6.0713575E-3,7.2162753E-1,7.1414053E-1,1.0094995E0,-3.4126088E-2,-7.725455E-2,5.0701406E-3,-9.5346E-2,4.19989E-2,-2.9389162E-2,2.5929738E-2,5.9827905E-2,1.1076237E-2,5.123338E-2],"categories":[],"categories_nodes":[],"categories_segments":[],"categories_sizes":[],"default_left":[0,0,0,0,0,0,0,0,0,0,0,0,0,0,0,0,0,0,0,0,0,0,0,0,0],"id":9,"left_children":[1,3,5,7,9,11,13,-1,15,-1,-1,17,19,21,23,-1,-1,-1,-1,-1,-1,-1,-1,-1,-1],"loss_changes":[1.0984839E3,3.3445557E1,1.3185541E2,1.9507996E1,1.1993564E1,5.4741524E1,1.0810089E1,0E0,2.0860733E1,0E0,0E0,7.584242E1,2.3008781E1,2.0375465E1,3.8760376E0,0E0,0E0,0E0,0E0,0E0,0E0,0E0,0E0,0E0,0E0],"parents":[2147483647,0,0,1,1,2,2,3,3,4,4,5,5,6,6,8,8,11,11,12,12,13,13,14,14],"right_children":[2,4,6,8,10,12,14,-1,16,-1,-1,18,20,22,24,-1,-1,-1,-1,-1,-1,-1,-1,-1,-1],"split_conditions":[2.0939672E-1,2.6293101E0,1.0928096E0,-2.3230968E-1,-1.8813904E-1,1.2610964E0,1.4461746E0,-7.5663745E-2,1E0,-4.4819817E-2,7.293361E-2,3.2828432E-1,9.1612697E-1,2.3282225E0,-1.0739558E0,-3.4126088E-2,-7.725455E-2,5.0701406E-3,-9.5346E-2,4.19989E-2,-2.9389162E-2,2.5929738E-2,5.9827905E-2,1.1076237E-2,5.123338E-2],"split_indices":[0,3,0,0,0,3,0,0,7,0,0,3,0,3,3,0,0,0,0,0,0,0,0,0,0],"split_type":[0,0,0,0,0,0,0,0,0,0,0,0,0,0,0,0,0,0,0,0,0,0,0,0,0],"sum_hessian":[1.5086985E3,4.2253314E2,1.0861653E3,4.1560297E2,6.930172E0,5.1051944E2,5.7564594E2,2.8934674E2,1.2625622E2,2.0571892E0,4.872983E0,3.6832516E2,1.4219424E2,2.24358E2,3.512879E2,8.0125275E1,4.613094E1,3.4995847E2,1.8366705E1,1.3090063E2,1.1293624E1,1.618609E2,6.2497093E1,7.0764694E0,3.4421146E2],"tree_param":{"num_deleted":"0","num_feature":"9","num_nodes":"25","size_leaf_vector":"1"}},{"base_weights":[6.2461056E-2,-1.2440208E0,5.5330837E-1,-7.383684E-2,-7.4843794E-1,3.4985057E-1,9.2196554E-1,-8.427752E-1,6.0173552E-2,1.3562515E-1,8.076369E-1,-7.382818E-2,9.445149E-1,2.2243058E-2,-4.6691995E-2,-1.1947793E-2,1.6819095E-2,5.644017E-2,2.8305048E-2,4.9059812E-2,1.3025038E-2],"categories":[],"categories_nodes":[],"categories_segments":[],"categories_sizes":[],"default_left":[0,0,0,0,0,0,0,0,0,0,0,0,0,0,0,0,0,0,0,0,0],"id":10,"left_children":[1,3,5,-1,7,9,11,13,-1,15,17,-1,19,-1,-1,-1,-1,-1,-1,-1,-1],"loss_changes":[9.6528674E2,4.5754456E1,8.157532E1,0E0,2.6269905E1,6.9208565E1,2.308496E1,1.5759781E1,0E0,3.6493595E1,1.651091E1,0E0,9.287659E0,0E0,0E0,0E0,0E0,0E0,0E0,0E0,0E0],"parents":[2147483647,0,0,1,1,2,2,4,4,5,5,6,6,7,7,9,9,10,10,12,12],"right_children":[2,4,6,-1,8,10,12,14,-1,16,18,-1,20,-1,-1,-1,-1,-1,-1,-1,-1],"split_conditions":[2.0939672E-1,-2.3230968E-1,1.3578334E0,-7.383684E-2,2.5502887E0,1.2610964E0,-1.0739558E0,-1.0629869E0,6.0173552E-2,6.0693246E-1,2.0622804E0,-7.382818E-2,1E0,2.2243058E-2,-4.6691995E-2,-1.1947793E-2,1.6819095E-2,5.644017E-2,2.8305048E-2,4.9059812E-2,1.3025038E-2],"split_indices":[0,0,0,0,3,3,3,3,0,0,3,0,8,0,0,0,0,0,0,0,0],"split_type":[0,0,0,0,0,0,0,0,0,0,0,0,0,0,0,0,0,0,0,0,0],"sum_hessian":[1.5021328E3,4.0960114E2,1.0925317E3,2.76699E2,1.3290213E2,7.058851E2,3.866466E2,1.2758805E2,5.314084E0,4.82186E2,2.2369908E2,2.7002866E0,3.8394632E2,8.042403E0,1.1954565E2,1.6815303E2,3.1403296E2,9.365601E1,1.3004306E2,3.63786E2,2.0160328E1],"tree_param":{"num_deleted":"0","num_feature":"9","num_nodes":"21","size_leaf_vector":"1"}},{"base_weights":[-2.201436E-2,-1.1692712E0,5.212223E-1,-1.3468212E0,-6.805754E-1,1.601657E-1,7.9666865E-1,-2.8667235E-1,-1.3954858E0,-9.342417E-1,3.6197826E-1,-2.6151803E-1,5.1361626E-1,6.7682713E-1,1.0443853E0,-6.504091E-2,5.738714E-2,-7.2448425E-2,-4.557439E-2,-3.6073513E-2,-8.013133E-2,5.7801675E-2,-2.2600481E-2,1.5528578E-3,-7.088928E-2,3.5562154E-2,-9.387779E-4,-7.4351184E-2,3.5073396E-2,5.4045834E-2,2.3280764E-2],"categories":[],"categories_nodes":[],"categories_segments":[],"categories_sizes":[],"default_left":[0,0,0,0,0,0,0,0,0,0,0,0,0,0,0,0,0,0,0,0,0,0,0,0,0,0,0,0,0,0,0],"id":11,"left_children":[1,3,5,7,9,11,13,15,17,19,21,23,25,27,29,-1,-1,-1,-1,-1,-1,-1,-1,-1,-1,-1,-1,-1,-1,-1,-1],"loss_changes":[8.962936E2,3.872345E1,9.687717E1,1.6809326E1,3.3878975E1,6.3434616E1,1.5364777E1,2.6530054E1,6.3605347E0,1.2758881E1,1.7443954E1,6.584733E1,2.435706E1,2.167366E1,3.0007935E0,0E0,0E0,0E0,0E0,0E0,0E0,0E0,0E0,0E0,0E0,0E0,0E0,0E0,0E0,0E0,0E0],"parents":[2147483647,0,0,1,1,2,2,3,3,4,4,5,5,6,6,7,7,8,8,9,9,10,10,11,11,12,12,13,13,14,14],"right_children":[2,4,6,8,10,12,14,16,18,20,22,24,26,28,30,-1,-1,-1,-1,-1,-1,-1,-1,-1,-1,-1,-1,-1,-1,-1,-1],"split_conditions":[3.4190863E-1,-1.1456483E-2,1.0928096E0,-1.848955E0,8.2256055E-1,-1.11146934E-1,1E0,-1.8524888E0,1E0,-7.8463815E-2,1.2105543E-1,8.277857E-1,1E0,-1.0739558E0,1.6670278E0,-6.504091E-2,5.738714E-2,-7.2448425E-2,-4.557439E-2,-3.6073513E-2,-8.013133E-2,5.7801675E-2,-2.2600481E-2,1.5528578E-3,-7.088928E-2,3.5562154E-2,-9.387779E-4,-7.4351184E-2,3.5073396E-2,5.4045834E-2,2.3280764E-2],"split_indices":[0,0,0,0,3,3,1,0,6,3,0,0,7,3,0,0,0,0,0,0,0,0,0,0,0,0,0,0,0,0,0],"split_type":[0,0,0,0,0,0,0,0,0,0,0,0,0,0,0,0,0,0,0,0,0,0,0,0,0,0,0,0,0,0,0],"sum_hessian":[1.4351711E3,4.6063382E2,9.745373E2,3.3594604E2,1.2468777E2,4.2275717E2,5.5178015E2,1.5197909E1,3.2074814E2,1.0041209E2,2.427568E1,1.9294936E2,2.2980782E2,3.7564658E2,1.7613356E2,8.985076E0,6.212833E0,2.8613855E2,3.4609577E1,7.853169E1,2.188039E1,1.1969232E1,1.2306449E1,1.5515065E2,3.7798706E1,1.6722797E2,6.257985E1,3.2271636E0,3.724194E2,1.6445213E2,1.1681438E1],"tree_param":{"num_deleted":"0","num_feature":"9","num_nodes":"31","size_leaf_vector":"1"}},{"base_weights":[3.3930559E-3,-9.0543836E-1,6.3577604E-1,-7.06163E-2,-4.7716022E-1,4.3706974E-1,8.573891E-1,-6.4132345E-1,3.126787E-1,2.4469078E-1,8.5008895E-1,9.9922425E-1,7.616549E-1,-8.15605E-2,-2.5377164E-2,3.7036777E-2,-3.6420442E-2,2.3851287E-2,-1.8417832E-2,4.926218E-2,1.8687986E-2,6.457177E-3,5.2102115E-2,-1.0886138E-1,4.3722283E-2],"categories":[],"categories_nodes":[],"categories_segments":[],"categories_sizes":[],"default_left":[0,0,0,0,0,0,0,0,0,0,0,0,0,0,0,0,0,0,0,0,0,0,0,0,0],"id":12,"left_children":[1,3,5,-1,7,9,11,13,15,17,19,21,23,-1,-1,-1,-1,-1,-1,-1,-1,-1,-1,-1,-1],"loss_changes":[8.339311E2,1.2823691E2,3.711624E1,0E0,4.243754E1,3.5776077E1,4.329651E0,3.445301E1,2.6179504E1,4.4697624E1,8.700211E0,5.6682434E0,8.468927E1,0E0,0E0,0E0,0E0,0E0,0E0,0E0,0E0,0E0,0E0,0E0,0E0],"parents":[2147483647,0,0,1,1,2,2,4,4,5,5,6,6,7,7,8,8,9,9,10,10,11,11,12,12],"right_children":[2,4,6,-1,8,10,12,14,16,18,20,22,24,-1,-1,-1,-1,-1,-1,-1,-1,-1,-1,-1,-1],"split_conditions":[6.0693246E-1,-2.3230968E-1,1.3578334E0,-7.06163E-2,1E0,1.9187882E0,-5.344605E-1,-7.7622604E-1,1E0,1E0,2.7074363E0,-1.0739558E0,-3.663439E-1,-8.15605E-2,-2.5377164E-2,3.7036777E-2,-3.6420442E-2,2.3851287E-2,-1.8417832E-2,4.926218E-2,1.8687986E-2,6.457177E-3,5.2102115E-2,-1.0886138E-1,4.3722283E-2],"split_indices":[0,0,0,0,1,3,3,3,5,7,3,3,3,0,0,0,0,0,0,0,0,0,0,0,0],"split_type":[0,0,0,0,0,0,0,0,0,0,0,0,0,0,0,0,0,0,0,0,0,0,0,0,0],"sum_hessian":[1.447995E3,5.938679E2,8.54127E2,2.7039548E2,3.2347244E2,4.5268848E2,4.0143854E2,2.680433E2,5.5429134E1,3.104661E2,1.4222238E2,1.560646E2,2.4537395E2,2.991344E1,2.3812985E2,3.95857E1,1.5843434E1,2.253826E2,8.5083496E1,1.09538956E2,3.268343E1,7.6024995E0,1.484621E2,8.054354E0,2.373196E2],"tree_param":{"num_deleted":"0","num_feature":"9","num_nodes":"25","size_leaf_vector":"1"}},{"base_weights":[-1.7157957E-2,-1.1271026E0,4.3184432E-1,-1.1605607E0,7.67215E-1,-9.9885024E-2,5.62005E-1,-1.315602E0,-8.502113E-1,-3.7520047E-2,6.7402735E-2,-4.1275185E-1,8.107047E-1,3.5876667E-1,7.546985E-1,-4.4662175E-3,-6.8990186E-2,2.2232456E-2,-4.686705E-2,-3.9837897E-2,2.135674E-2,5.0065268E-2,-6.669105E-3,2.5225872E-2,-3.4280512E-2,4.988163E-2,3.2359507E-2],"categories":[],"categories_nodes":[],"categories_segments":[],"categories_sizes":[],"default_left":[0,0,0,0,0,0,0,0,0,0,0,0,0,0,0,0,0,0,0,0,0,0,0,0,0,0,0],"id":13,"left_children":[1,3,5,7,9,11,13,15,17,-1,-1,19,21,23,25,-1,-1,-1,-1,-1,-1,-1,-1,-1,-1,-1,-1],"loss_changes":[7.047089E2,2.7147766E1,6.976581E1,1.7606812E1,8.544022E0,5.7270603E1,3.127835E1,2.0641205E1,1.6167313E1,0E0,0E0,4.8663155E1,9.46064E0,6.089023E1,9.842529E0,0E0,0E0,0E0,0E0,0E0,0E0,0E0,0E0,0E0,0E0,0E0,0E0],"parents":[2147483647,0,0,1,1,2,2,3,3,4,4,5,5,6,6,7,7,8,8,11,11,12,12,13,13,14,14],"right_children":[2,4,6,8,10,12,14,16,18,-1,-1,20,22,24,26,-1,-1,-1,-1,-1,-1,-1,-1,-1,-1,-1,-1],"split_conditions":[2.5356737E-1,2.6293101E0,6.0693246E-1,-2.3230968E-1,-2.3230968E-1,1E0,-4.040813E-2,-1.848955E0,-1.0629869E0,-3.7520047E-2,6.7402735E-2,1E0,1E0,-2.685184E-1,3.2828432E-1,-4.4662175E-3,-6.8990186E-2,2.2232456E-2,-4.686705E-2,-3.9837897E-2,2.135674E-2,5.0065268E-2,-6.669105E-3,2.5225872E-2,-3.4280512E-2,4.988163E-2,3.2359507E-2],"split_indices":[0,3,0,0,0,1,3,0,3,0,0,8,8,3,3,0,0,0,0,0,0,0,0,0,0,0,0],"split_type":[0,0,0,0,0,0,0,0,0,0,0,0,0,0,0,0,0,0,0,0,0,0,0,0,0,0,0],"sum_hessian":[1.411069E3,4.0575858E2,1.0053105E3,3.9928723E2,6.4713206E0,1.9776291E2,8.0754755E2,2.630278E2,1.3625945E2,1.6700175E0,4.8013034E0,1.4780061E2,4.996229E1,3.9510938E2,4.124382E2,1.3264163E1,2.4976363E2,8.202633E0,1.2805681E2,1.0147985E2,4.632076E1,4.149417E1,8.468122E0,3.4740213E2,4.7707237E1,1.2271739E2,2.897208E2],"tree_param":{"num_deleted":"0","num_feature":"9","num_nodes":"27","size_leaf_vector":"1"}},{"base_weights":[3.533275E-2,-1.1110883E0,4.4458422E-1,-1.289509E0,-7.287933E-1,2.8304902E-1,8.0901885E-1,-1.4380078E-1,-6.771889E-2,-9.039757E-1,-9.009154E-2,1.7762716E-1,8.2194924E-1,8.463779E-1,-2.2013023E-2,-6.071728E-2,5.823752E-2,-5.1128425E-2,1.9318542E-3,8.0171205E-2,-2.975828E-2,4.155115E-3,1.9173283E-2,-7.307712E-2,4.618415E-2,3.478481E-2,4.5993995E-2,-8.983553E-2,3.151132E-2],"categories":[],"categories_nodes":[],"categories_segments":[],"categories_sizes":[],"default_left":[0,0,0,0,0,0,0,0,0,0,0,0,0,0,0,0,0,0,0,0,0,0,0,0,0,0,0,0,0],"id":14,"left_children":[1,3,5,7,9,11,13,15,-1,17,19,21,23,25,27,-1,-1,-1,-1,-1,-1,-1,-1,-1,-1,-1,-1,-1,-1],"loss_changes":[6.7482837E2,2.4400452E1,6.2049225E1,1.8736938E1,1.3735985E1,4.1632122E1,1.0108597E1,2.3692215E1,0E0,1.0906052E1,2.565933E1,1.1977417E1,2.992907E1,2.4819183E0,1.9559929E1,0E0,0E0,0E0,0E0,0E0,0E0,0E0,0E0,0E0,0E0,0E0,0E0,0E0,0E0],"parents":[2147483647,0,0,1,1,2,2,3,3,4,4,5,5,6,6,7,7,9,9,10,10,11,11,12,12,13,13,14,14],"right_children":[2,4,6,8,10,12,14,16,-1,18,20,22,24,26,28,-1,-1,-1,-1,-1,-1,-1,-1,-1,-1,-1,-1,-1,-1],"split_conditions":[2.0939672E-1,-2.3230968E-1,1.4461746E0,-1.848955E0,1E0,1E0,1E0,-1.8524888E0,-6.771889E-2,1E0,-1.8813904E-1,1.0044682E0,5.1859117E-1,1.5786865E0,1E0,-6.071728E-2,5.823752E-2,-5.1128425E-2,1.9318542E-3,8.0171205E-2,-2.975828E-2,4.155115E-3,1.9173283E-2,-7.307712E-2,4.618415E-2,3.478481E-2,4.5993995E-2,-8.983553E-2,3.151132E-2],"split_indices":[0,0,0,0,6,2,8,0,0,1,0,0,0,0,2,0,0,0,0,0,0,0,0,0,0,0,0,0,0],"split_type":[0,0,0,0,0,0,0,0,0,0,0,0,0,0,0,0,0,0,0,0,0,0,0,0,0,0,0,0,0],"sum_hessian":[1.4352521E3,3.768957E2,1.0583563E3,2.5453983E2,1.2235587E2,7.3516174E2,3.2319458E2,1.3898084E1,2.4064175E2,9.55308E1,2.6825075E1,6.1654517E2,1.1861663E2,3.0926392E2,1.3930668E1,7.7036247E0,6.1944594E0,8.474194E1,1.0788855E1,5.4130726E0,2.1412003E1,4.2396027E2,1.9258485E2,4.2040462E0,1.1441259E2,1.0654342E2,2.0272049E2,3.0365124E0,1.08941555E1],"tree_param":{"num_deleted":"0","num_feature":"9","num_nodes":"29","size_leaf_vector":"1"}},{"base_weights":[5.064053E-2,-1.5470761E-1,6.578593E-1,-2.6037675E-1,4.8900944E-1,-6.570622E-2,7.2815347E-1,-6.807071E-1,-1.429616E-1,1.0181125E0,-3.1830367E-2,4.5048428E-1,-9.105746E-2,8.0547774E-1,-2.3926808E-2,-4.694433E-2,-7.3565408E-3,3.3256288E-3,-3.338863E-2,5.4628726E-2,-4.7529947E-2,-3.0788524E-2,3.4787647E-2,-1.9571725E-2,5.4998558E-2,4.880514E-2,3.323986E-2,-9.35708E-2,3.3888757E-2],"categories":[],"categories_nodes":[],"categories_segments":[],"categories_sizes":[],"default_left":[0,0,0,0,0,0,0,0,0,0,0,0,0,0,0,0,0,0,0,0,0,0,0,0,0,0,0,0,0],"id":15,"left_children":[1,3,5,7,9,11,13,15,17,19,21,23,-1,25,27,-1,-1,-1,-1,-1,-1,-1,-1,-1,-1,-1,-1,-1,-1],"loss_changes":[1.803259E2,7.372219E1,1.8659332E1,4.573052E1,4.219863E1,3.1799568E1,1.940654E1,2.7698112E1,8.015256E1,1.2687218E1,3.400817E1,1.5558609E1,0E0,6.280319E0,4.406327E1,0E0,0E0,0E0,0E0,0E0,0E0,0E0,0E0,0E0,0E0,0E0,0E0,0E0,0E0],"parents":[2147483647,0,0,1,1,2,2,3,3,4,4,5,5,6,6,7,7,8,8,9,9,10,10,11,11,13,13,14,14],"right_children":[2,4,6,8,10,12,14,16,18,20,22,24,-1,26,28,-1,-1,-1,-1,-1,-1,-1,-1,-1,-1,-1,-1,-1,-1],"split_conditions":[1.17715E0,1E0,-4.0053222E-1,-6.441389E-1,-6.819822E-1,-6.1849606E-1,1.5226783E0,1E0,4.2003757E-1,1.3431786E0,1E0,1E0,-9.105746E-2,2.109738E0,2.1252842E0,-4.694433E-2,-7.3565408E-3,3.3256288E-3,-3.338863E-2,5.4628726E-2,-4.7529947E-2,-3.0788524E-2,3.4787647E-2,-1.9571725E-2,5.4998558E-2,4.880514E-2,3.323986E-2,-9.35708E-2,3.3888757E-2],"split_indices":[3,1,4,4,3,4,4,7,4,4,6,1,0,3,4,0,0,0,0,0,0,0,0,0,0,0,0,0,0],"split_type":[0,0,0,0,0,0,0,0,0,0,0,0,0,0,0,0,0,0,0,0,0,0,0,0,0,0,0,0,0],"sum_hessian":[1.4434548E3,1.079507E3,3.6394785E2,9.280556E2,1.5145135E2,3.223526E1,3.317126E2,2.0106694E2,7.2698865E2,7.441927E1,7.703208E1,2.5772026E1,6.4632335E0,3.0069092E2,3.1021679E1,1.3473419E2,6.633274E1,5.205322E2,2.0645645E2,7.2350334E1,2.0689392E0,4.286235E1,3.416973E1,1.1482906E1,1.428912E1,1.3185829E2,1.6883261E2,7.8508835E0,2.3170795E1],"tree_param":{"num_deleted":"0","num_feature":"9","num_nodes":"29","size_leaf_vector":"1"}},{"base_weights":[-3.7417714E-2,-2.6462775E-1,6.1101186E-1,-3.9954796E-1,4.9027035E-1,-2.752406E-2,6.7421675E-1,-1.0396754E0,-3.3326888E-1,9.323982E-1,3.60939E-2,3.762683E-1,-9.142467E-2,5.4846305E-1,9.971193E-1,-5.954677E-2,5.3533334E-2,-7.828511E-2,-1.5499567E-2,5.0893016E-2,-5.105854E-2,-2.5492383E-2,3.6369395E-2,3.2051787E-2,-5.6913704E-2,4.2364877E-2,1.7088033E-2,-6.1283696E-2,5.2343637E-2],"categories":[],"categories_nodes":[],"categories_segments":[],"categories_sizes":[],"default_left":[0,0,0,0,0,0,0,0,0,0,0,0,0,0,0,0,0,0,0,0,0,0,0,0,0,0,0,0,0],"id":16,"left_children":[1,3,5,7,9,11,13,15,17,19,21,23,-1,25,27,-1,-1,-1,-1,-1,-1,-1,-1,-1,-1,-1,-1,-1,-1],"loss_changes":[2.0051697E2,1.0292735E2,1.4281662E1,3.5785843E1,3.0765945E1,2.5213118E1,1.2231628E1,2.7315628E1,2.1580856E1,1.4532211E1,2.9715252E1,1.2485234E1,0E0,1.4061066E1,1.1685402E1,0E0,0E0,0E0,0E0,0E0,0E0,0E0,0E0,0E0,0E0,0E0,0E0,0E0,0E0],"parents":[2147483647,0,0,1,1,2,2,3,3,4,4,5,5,6,6,7,7,8,8,9,9,10,10,11,11,13,13,14,14],"right_children":[2,4,6,8,10,12,14,16,18,20,22,24,-1,26,28,-1,-1,-1,-1,-1,-1,-1,-1,-1,-1,-1,-1,-1,-1],"split_conditions":[1.17715E0,1E0,-4.0053222E-1,-1.1057094E0,-6.622828E-1,2.4314206E0,1E0,1E0,-1.0739558E0,1.3431786E0,1E0,-6.1849606E-1,-9.142467E-2,2.0622804E0,-1.0820423E-1,-5.954677E-2,5.3533334E-2,-7.828511E-2,-1.5499567E-2,5.0893016E-2,-5.105854E-2,-2.5492383E-2,3.6369395E-2,3.2051787E-2,-5.6913704E-2,4.2364877E-2,1.7088033E-2,-6.1283696E-2,5.2343637E-2],"split_indices":[3,1,4,4,3,3,2,2,3,4,6,4,0,3,4,0,0,0,0,0,0,0,0,0,0,0,0,0,0],"split_type":[0,0,0,0,0,0,0,0,0,0,0,0,0,0,0,0,0,0,0,0,0,0,0,0,0,0,0,0,0],"sum_hessian":[1.3578623E3,1.0061831E3,3.516792E2,8.542179E2,1.5196518E2,3.175155E1,3.1992764E2,7.808065E1,7.7613727E2,7.620367E1,7.576151E1,2.6905684E1,4.8458676E0,2.3316847E2,8.675917E1,7.346826E1,4.6123843E0,1.2545039E1,7.635922E2,7.369808E1,2.5055835E0,4.2551033E1,3.321048E1,2.3638412E1,3.2672722E0,9.3436485E1,1.3973198E2,1.123269E0,8.56359E1],"tree_param":{"num_deleted":"0","num_feature":"9","num_nodes":"29","size_leaf_vector":"1"}},{"base_weights":[5.1437314E-3,-1.1312402E0,3.5764676E-1,-1.2152392E0,-4.5886979E-1,4.1029253E-3,5.884187E-1,-7.293745E-2,-1.2721598E0,-6.289048E-2,4.644197E-1,-8.1053436E-1,1.4498925E-1,-7.331357E-2,6.0397303E-1,-5.84252E-2,6.996199E-2,-5.7185378E-2,-6.7845486E-2,-4.9260906E-3,7.431264E-2,2.994789E-2,-6.3949294E-2,1.042367E-2,-9.195153E-2,3.347497E-2,7.727982E-3],"categories":[],"categories_nodes":[],"categories_segments":[],"categories_sizes":[],"default_left":[0,0,0,0,0,0,0,0,0,0,0,0,0,0,0,0,0,0,0,0,0,0,0,0,0,0,0],"id":17,"left_children":[1,3,5,7,9,11,13,15,17,-1,19,21,23,-1,25,-1,-1,-1,-1,-1,-1,-1,-1,-1,-1,-1,-1],"loss_changes":[5.4734125E2,1.7434265E1,8.508139E1,1.8499817E1,2.9155174E1,4.7620697E1,2.1493958E1,2.696423E1,6.437378E-1,0E0,1.107986E1,4.1543884E1,4.5125435E1,0E0,1.8317825E1,0E0,0E0,0E0,0E0,0E0,0E0,0E0,0E0,0E0,0E0,0E0,0E0],"parents":[2147483647,0,0,1,1,2,2,3,3,4,4,5,5,6,6,7,7,8,8,10,10,11,11,12,12,14,14],"right_children":[2,4,6,8,10,12,14,16,18,-1,20,22,24,-1,26,-1,-1,-1,-1,-1,-1,-1,-1,-1,-1,-1,-1],"split_conditions":[7.68848E-2,1.3175358E0,8.719563E-1,-1.848955E0,-1.8813904E-1,-3.236038E-1,-1.0739558E0,-1.8524888E0,-6.1849606E-1,-6.289048E-2,8.2256055E-1,-1.0672451E0,8.277857E-1,-7.331357E-2,7.149298E-1,-5.84252E-2,6.996199E-2,-5.7185378E-2,-6.7845486E-2,-4.9260906E-3,7.431264E-2,2.994789E-2,-6.3949294E-2,1.042367E-2,-9.195153E-2,3.347497E-2,7.727982E-3],"split_indices":[0,4,0,0,0,4,3,0,4,0,3,4,0,0,4,0,0,0,0,0,0,0,0,0,0,0,0],"split_type":[0,0,0,0,0,0,0,0,0,0,0,0,0,0,0,0,0,0,0,0,0,0,0,0,0,0,0],"sum_hessian":[1.3633611E3,3.2199945E2,1.0413616E3,2.8516306E2,3.6836403E1,4.1188242E2,6.294792E2,1.3697588E1,2.7146545E2,1.9456692E1,1.7379711E1,5.967841E1,3.52204E2,3.6783204E0,6.258009E2,8.030703E0,5.666885E0,1.16552925E2,1.5491254E2,1.2080033E1,5.299677E0,1.4782488E1,4.4895924E1,3.4258447E2,9.61954E0,5.455263E2,8.027458E1],"tree_param":{"num_deleted":"0","num_feature":"9","num_nodes":"27","size_leaf_vector":"1"}},{"base_weights":[2.2860982E-2,-1.2058526E0,3.6799666E-1,-6.0069817E-3,-1.2590404E0,-1.1843191E-1,5.305573E-1,-5.670246E-2,7.1634896E-2,-6.581167E-2,-7.816808E-1,-1.1945657E0,1.0283518E-1,-8.1826106E-2,5.4739773E-1,2.601814E-2,-6.510389E-2,3.1900607E-2,-7.960641E-2,2.9064849E-2,-2.8752793E-2,1.8622464E-2,3.7894335E-2],"categories":[],"categories_nodes":[],"categories_segments":[],"categories_sizes":[],"default_left":[0,0,0,0,0,0,0,0,0,0,0,0,0,0,0,0,0,0,0,0,0,0,0],"id":18,"left_children":[1,3,5,7,9,11,13,-1,-1,-1,15,17,19,-1,21,-1,-1,-1,-1,-1,-1,-1,-1],"loss_changes":[5.88002E2,1.9393555E1,8.568556E1,2.5830076E1,6.4057007E0,6.5035164E1,3.0961487E1,0E0,0E0,0E0,2.4626577E1,3.5451324E1,7.422037E1,0E0,2.9273193E1,0E0,0E0,0E0,0E0,0E0,0E0,0E0,0E0],"parents":[2147483647,0,0,1,1,2,2,3,3,4,4,5,5,6,6,10,10,11,11,12,12,14,14],"right_children":[2,4,6,8,10,12,14,-1,-1,-1,16,18,20,-1,22,-1,-1,-1,-1,-1,-1,-1,-1],"split_conditions":[7.68848E-2,-1.848955E0,6.0693246E-1,-1.8524888E0,1E0,-2.6718962E-1,-1.2082806E0,-5.670246E-2,7.1634896E-2,-6.581167E-2,-6.1849606E-1,-1.0672451E0,3.9439476E-1,-8.1826106E-2,1.3578334E0,2.601814E-2,-6.510389E-2,3.1900607E-2,-7.960641E-2,2.9064849E-2,-2.8752793E-2,1.8622464E-2,3.7894335E-2],"split_indices":[0,0,0,0,6,4,4,0,0,0,4,4,4,0,0,0,0,0,0,0,0,0,0],"split_type":[0,0,0,0,0,0,0,0,0,0,0,0,0,0,0,0,0,0,0,0,0,0,0],"sum_hessian":[1.3834891E3,3.0257053E2,1.0809186E3,1.2914113E1,2.896564E2,2.7085345E2,8.100651E2,7.4166174E0,5.4974957E0,2.5631143E2,3.334498E1,4.5067802E1,2.2578564E2,5.1340466E0,8.049311E2,9.521669E0,2.3823309E1,7.872416E0,3.719539E1,1.3248807E2,9.329757E1,4.4184488E2,3.6308624E2],"tree_param":{"num_deleted":"0","num_feature":"9","num_nodes":"23","size_leaf_vector":"1"}},{"base_weights":[2.069475E-2,-1.20931156E-1,4.763109E-1,-6.733834E-1,-2.9967537E-2,-9.520668E-2,5.377009E-1,-1.2302263E-1,-1.2024153E0,1.1339631E-1,-4.010122E-1,4.5393026E-1,-8.681367E-2,6.553687E-1,4.197858E-1,-6.544326E-2,1.7135808E-2,-7.168647E-2,-4.464227E-2,-3.061128E-3,2.7966311E-2,2.1415105E-2,-3.157292E-2,-1.7764173E-2,5.3504147E-2,4.0150788E-2,-3.0565728E-3,-8.607883E-2,2.3959616E-2],"categories":[],"categories_nodes":[],"categories_segments":[],"categories_sizes":[],"default_left":[0,0,0,0,0,0,0,0,0,0,0,0,0,0,0,0,0,0,0,0,0,0,0,0,0,0,0,0,0],"id":19,"left_children":[1,3,5,7,9,11,13,15,17,19,21,23,-1,25,27,-1,-1,-1,-1,-1,-1,-1,-1,-1,-1,-1,-1,-1,-1],"loss_changes":[8.7529106E1,5.1980736E1,1.1362053E1,4.2360558E1,4.742346E1,3.044632E1,3.6204224E0,4.118458E1,3.4074783E0,5.0143353E1,4.7884583E1,1.3294865E1,0E0,1.5182259E1,2.0237526E1,0E0,0E0,0E0,0E0,0E0,0E0,0E0,0E0,0E0,0E0,0E0,0E0,0E0,0E0],"parents":[2147483647,0,0,1,1,2,2,3,3,4,4,5,5,6,6,7,7,8,8,9,9,10,10,11,11,13,13,14,14],"right_children":[2,4,6,8,10,12,14,16,18,20,22,24,-1,26,28,-1,-1,-1,-1,-1,-1,-1,-1,-1,-1,-1,-1,-1,-1],"split_conditions":[1.2610964E0,-8.108171E-1,-4.0053222E-1,-5.344605E-1,4.2003757E-1,-6.1849606E-1,3.6875194E-1,-7.983879E-1,1E0,1E0,-8.406968E-1,1E0,-8.681367E-2,1E0,4.8414457E-1,-6.544326E-2,1.7135808E-2,-7.168647E-2,-4.464227E-2,-3.061128E-3,2.7966311E-2,2.1415105E-2,-3.157292E-2,-1.7764173E-2,5.3504147E-2,4.0150788E-2,-3.0565728E-3,-8.607883E-2,2.3959616E-2],"split_indices":[3,4,4,3,4,4,4,3,5,6,3,1,0,6,4,0,0,0,0,0,0,0,0,0,0,0,0,0,0],"split_type":[0,0,0,0,0,0,0,0,0,0,0,0,0,0,0,0,0,0,0,0,0,0,0,0,0,0,0,0,0],"sum_hessian":[1.3536324E3,1.0334819E3,3.201506E2,1.4475183E2,8.887301E2,3.0973434E1,2.8917715E2,7.18519E1,7.289993E1,6.417954E2,2.4693465E2,2.402068E1,6.9527564E0,1.4131833E2,1.4785883E2,1.949618E1,5.2355717E1,3.8606026E1,3.4293903E1,4.621278E2,1.7966763E2,5.341617E1,1.9351848E2,1.0658108E1,1.3362571E1,1.1702269E2,2.4295649E1,2.8583312E0,1.450005E2],"tree_param":{"num_deleted":"0","num_feature":"9","num_nodes":"29","size_leaf_vector":"1"}},{"base_weights":[1.8467525E-2,-1.0723816E0,3.281254E-1,-1.1643056E0,-3.2957882E-1,-1.8697938E-1,4.8752326E-1,-7.771355E-2,-1.2221667E0,-5.973149E-2,5.814874E-1,-1.0750002E0,-1.3490692E-2,3.1701133E-1,6.911715E-1,-5.568984E-2,6.2856816E-2,-6.428289E-2,-3.6587454E-2,8.8664953E-4,7.6247334E-2,3.0261273E-2,-7.520368E-2,2.1628892E-2,-3.2775056E-2,-1.3364418E-2,2.2126324E-2,3.7864245E-2,-1.3751221E-2],"categories":[],"categories_nodes":[],"categories_segments":[],"categories_sizes":[],"default_left":[0,0,0,0,0,0,0,0,0,0,0,0,0,0,0,0,0,0,0,0,0,0,0,0,0,0,0,0,0],"id":20,"left_children":[1,3,5,7,9,11,13,15,17,-1,19,21,23,25,27,-1,-1,-1,-1,-1,-1,-1,-1,-1,-1,-1,-1,-1,-1],"loss_changes":[4.5892725E2,1.9936188E1,8.701806E1,1.6627106E1,2.8763153E1,3.867017E1,2.7746307E1,2.2965929E1,6.4709167E0,0E0,9.60783E0,3.0943604E1,6.102883E1,3.2653576E1,2.3767365E1,0E0,0E0,0E0,0E0,0E0,0E0,0E0,0E0,0E0,0E0,0E0,0E0,0E0,0E0],"parents":[2147483647,0,0,1,1,2,2,3,3,4,4,5,5,6,6,7,7,8,8,10,10,11,11,12,12,13,13,14,14],"right_children":[2,4,6,8,10,12,14,16,18,-1,20,22,24,26,28,-1,-1,-1,-1,-1,-1,-1,-1,-1,-1,-1,-1,-1,-1],"split_conditions":[7.68848E-2,1.3175358E0,6.0693246E-1,-1.848955E0,-1.8813904E-1,-3.236038E-1,1.3578334E0,-1.8524888E0,1E0,-5.973149E-2,8.2256055E-1,-1.0672451E0,3.9439476E-1,-2.0821118E-1,6.89287E-1,-5.568984E-2,6.2856816E-2,-6.428289E-2,-3.6587454E-2,8.8664953E-4,7.6247334E-2,3.0261273E-2,-7.520368E-2,2.1628892E-2,-3.2775056E-2,-1.3364418E-2,2.2126324E-2,3.7864245E-2,-1.3751221E-2],"split_indices":[0,4,0,0,0,4,0,0,6,0,3,4,4,4,4,0,0,0,0,0,0,0,0,0,0,0,0,0,0],"split_type":[0,0,0,0,0,0,0,0,0,0,0,0,0,0,0,0,0,0,0,0,0,0,0,0,0,0,0,0,0],"sum_hessian":[1.3555544E3,2.9890173E2,1.0566527E3,2.652279E2,3.367384E1,2.496459E2,8.070068E2,1.3587059E1,2.5164084E2,1.7033648E1,1.6640192E1,3.952718E1,2.1011871E2,4.4132565E2,3.656811E2,7.7894497E0,5.79761E0,2.2064333E2,3.0997505E1,1.1372728E1,5.267464E0,7.9153495E0,3.161183E1,1.2426723E2,8.5851494E1,7.773915E1,3.6358652E2,3.425649E2,2.3116188E1],"tree_param":{"num_deleted":"0","num_feature":"9","num_nodes":"29","size_leaf_vector":"1"}},{"base_weights":[-1.884859E-2,-9.986077E-1,3.1421503E-1,-1.0374058E0,8.261203E-1,1.0391267E-1,6.9920117E-1,-1.1169058E0,-4.692206E-1,-3.246823E-2,6.61618E-2,-5.075125E-2,4.520131E-1,-7.98055E-2,7.27314E-1,-3.8005733E-3,-5.838355E-2,-5.9740365E-2,3.5039575E-3,-8.032546E-2,-7.604568E-4,1.3842826E-2,4.2210292E-2,3.9926372E-2,8.35707E-3],"categories":[],"categories_nodes":[],"categories_segments":[],"categories_sizes":[],"default_left":[0,0,0,0,0,0,0,0,0,0,0,0,0,0,0,0,0,0,0,0,0,0,0,0,0],"id":21,"left_children":[1,3,5,7,9,11,13,15,17,-1,-1,19,21,-1,23,-1,-1,-1,-1,-1,-1,-1,-1,-1,-1],"loss_changes":[4.2586737E2,2.4725067E1,7.8751465E1,1.3887909E1,6.957386E0,3.4043427E1,2.3928452E1,1.4868256E1,1.6741028E1,0E0,0E0,2.4221794E1,1.3008881E1,0E0,1.3391327E1,0E0,0E0,0E0,0E0,0E0,0E0,0E0,0E0,0E0,0E0],"parents":[2147483647,0,0,1,1,2,2,3,3,4,4,5,5,6,6,7,7,8,8,11,11,12,12,14,14],"right_children":[2,4,6,8,10,12,14,16,18,-1,-1,20,22,-1,24,-1,-1,-1,-1,-1,-1,-1,-1,-1,-1],"split_conditions":[2.0939672E-1,2.6293101E0,1.3578334E0,1E0,-1.8813904E-1,1.2610964E0,-1.0540326E0,-1.848955E0,-2.3230968E-1,-3.246823E-2,6.61618E-2,-1.0311991E0,1E0,-7.98055E-2,2.2236814E0,-3.8005733E-3,-5.838355E-2,-5.9740365E-2,3.5039575E-3,-8.032546E-2,-7.604568E-4,1.3842826E-2,4.2210292E-2,3.9926372E-2,8.35707E-3],"split_indices":[0,3,0,6,0,3,3,0,0,0,0,3,2,0,3,0,0,0,0,0,0,0,0,0,0],"split_type":[0,0,0,0,0,0,0,0,0,0,0,0,0,0,0,0,0,0,0,0,0,0,0,0,0],"sum_hessian":[1.3021097E3,3.295853E2,9.725244E2,3.2335715E2,6.2281494E0,6.301848E2,3.423396E2,2.8239597E2,4.0961185E1,1.4537847E0,4.774365E0,4.3721005E2,1.9297475E2,3.1299193E0,3.392097E2,1.330639E1,2.6908957E2,1.668695E1,2.4274235E1,8.28437E0,4.289257E2,1.3516693E2,5.780782E1,3.0038428E2,3.8825413E1],"tree_param":{"num_deleted":"0","num_feature":"9","num_nodes":"25","size_leaf_vector":"1"}},{"base_weights":[3.484393E-3,-9.759732E-1,3.2493985E-1,-1.0574945E0,3.2530537E-1,1.14900805E-1,6.8747175E-1,-1.146683E0,-4.9058005E-1,-5.5702914E-2,1.2890949E0,-1.3335767E-2,5.162636E-1,7.121822E-1,4.0605627E-2,-6.00607E-2,5.833117E-4,1.0689044E-3,-6.3455686E-2,7.8241006E-2,-3.4177E-2,5.045871E-3,-4.4263355E-2,-7.5418904E-2,3.1561967E-2,3.185424E-2,4.609817E-2,-9.856487E-2,5.9641868E-2],"categories":[],"categories_nodes":[],"categories_segments":[],"categories_sizes":[],"default_left":[0,0,0,0,0,0,0,0,0,0,0,0,0,0,0,0,0,0,0,0,0,0,0,0,0,0,0,0,0],"id":22,"left_children":[1,3,5,7,9,11,13,15,17,-1,19,21,23,25,27,-1,-1,-1,-1,-1,-1,-1,-1,-1,-1,-1,-1,-1,-1],"loss_changes":[4.0966876E2,3.4622925E1,7.447565E1,1.4472137E1,3.0040062E1,3.2027542E1,5.695938E0,1.6483002E1,1.7497768E1,0E0,8.53117E0,4.7244724E1,3.6500347E1,4.5659943E0,3.7841133E1,0E0,0E0,0E0,0E0,0E0,0E0,0E0,0E0,0E0,0E0,0E0,0E0,0E0,0E0],"parents":[2147483647,0,0,1,1,2,2,3,3,4,4,5,5,6,6,7,7,8,8,10,10,11,11,12,12,13,13,14,14],"right_children":[2,4,6,8,10,12,14,16,18,-1,20,22,24,26,28,-1,-1,-1,-1,-1,-1,-1,-1,-1,-1,-1,-1,-1,-1],"split_conditions":[2.0939672E-1,2.1252842E0,1.3578334E0,1E0,-1.1456483E-2,9.585365E-1,9.970007E-1,1E0,1.7643091E-1,-5.5702914E-2,1.2105543E-1,5.4825157E-1,3.4190863E-1,2.9182354E-1,2.0611773E0,-6.00607E-2,5.833117E-4,1.0689044E-3,-6.3455686E-2,7.8241006E-2,-3.4177E-2,5.045871E-3,-4.4263355E-2,-7.5418904E-2,3.1561967E-2,3.185424E-2,4.609817E-2,-9.856487E-2,5.9641868E-2],"split_indices":[0,4,0,6,0,4,4,1,4,0,0,4,0,4,4,0,0,0,0,0,0,0,0,0,0,0,0,0,0],"split_type":[0,0,0,0,0,0,0,0,0,0,0,0,0,0,0,0,0,0,0,0,0,0,0,0,0,0,0,0,0],"sum_hessian":[1.2981364E3,3.2001465E2,9.781217E2,3.01413E2,1.860164E1,6.2056323E2,3.5755844E2,2.5911447E2,4.2298534E1,7.3664317E0,1.12352085E1,4.713998E2,1.4916345E2,3.4425632E2,1.3302129E1,2.4741168E2,1.1702775E1,2.6398127E1,1.5900408E1,1.0129467E1,1.1057423E0,4.1795908E2,5.3440716E1,7.0386724E0,1.4212477E2,2.5796527E2,8.6291046E1,4.455732E0,8.846396E0],"tree_param":{"num_deleted":"0","num_feature":"9","num_nodes":"29","size_leaf_vector":"1"}},{"base_weights":[2.0278865E-2,-1.0154452E0,3.0039418E-1,-1.1104777E0,-2.79262E-1,-2.154532E-1,3.9834735E-1,1.1291808E-2,-1.1714405E0,-5.71494E-2,5.17159E-1,7.6815623E-1,-3.6932144E-1,-8.311232E-2,4.205489E-1,-5.3164184E-2,6.2811464E-2,-6.1888885E-2,-3.404082E-2,7.547751E-2,2.4808498E-4,-5.9134703E-2,6.1583925E-2,-1.169799E-2,-8.47233E-2,2.1651857E-2,-8.627655E-2],"categories":[],"categories_nodes":[],"categories_segments":[],"categories_sizes":[],"default_left":[0,0,0,0,0,0,0,0,0,0,0,0,0,0,0,0,0,0,0,0,0,0,0,0,0,0,0],"id":23,"left_children":[1,3,5,7,9,11,13,15,17,-1,19,21,23,-1,25,-1,-1,-1,-1,-1,-1,-1,-1,-1,-1,-1,-1],"loss_changes":[3.8241006E2,1.9166168E1,5.25484E1,1.6980835E1,2.433348E1,2.5629202E1,4.095897E1,2.109306E1,6.392517E0,0E0,9.527647E0,2.2995518E1,2.541741E1,0E0,2.428444E1,0E0,0E0,0E0,0E0,0E0,0E0,0E0,0E0,0E0,0E0,0E0,0E0],"parents":[2147483647,0,0,1,1,2,2,3,3,4,4,5,5,6,6,7,7,8,8,10,10,11,11,12,12,14,14],"right_children":[2,4,6,8,10,12,14,16,18,-1,20,22,24,-1,26,-1,-1,-1,-1,-1,-1,-1,-1,-1,-1,-1,-1],"split_conditions":[7.68848E-2,1.3175358E0,4.7442055E-1,-1.848955E0,-1.8813904E-1,-9.2553866E-1,-1.0629869E0,-1.8524888E0,1E0,-5.71494E-2,1.3431786E0,1.12323895E-1,4.302499E-1,-8.311232E-2,2.253498E0,-5.3164184E-2,6.2811464E-2,-6.1888885E-2,-3.404082E-2,7.547751E-2,2.4808498E-4,-5.9134703E-2,6.1583925E-2,-1.169799E-2,-8.47233E-2,2.1651857E-2,-8.627655E-2],"split_indices":[0,4,0,0,0,3,3,0,6,0,4,4,0,0,4,0,0,0,0,0,0,0,0,0,0,0,0],"split_type":[0,0,0,0,0,0,0,0,0,0,0,0,0,0,0,0,0,0,0,0,0,0,0,0,0,0,0],"sum_hessian":[1.3150228E3,2.791032E2,1.0359197E3,2.4651807E2,3.2585155E1,1.6502977E2,8.7088983E2,1.2769522E1,2.3374855E2,1.5318915E1,1.726624E1,2.1513748E1,1.4351602E2,8.102102E0,8.627878E2,6.9711776E0,5.7983437E0,2.0389554E2,2.9853018E1,4.8835225E0,1.2382716E1,3.6835012E0,1.7830248E1,1.3181604E2,1.1699989E1,8.589866E2,3.8012044E0],"tree_param":{"num_deleted":"0","num_feature":"9","num_nodes":"27","size_leaf_vector":"1"}},{"base_weights":[-2.2933267E-4,-9.4180316E-1,3.0015856E-1,-1.0231916E0,3.1853756E-1,1.395692E-1,5.985618E-1,1.3402851E-1,-1.0716045E0,-5.4124434E-2,1.2991009E0,2.1237543E-2,5.434607E-1,6.73395E-1,-6.815358E-1,-5.0855696E-2,6.543292E-2,-3.128224E-4,-5.5975515E-2,-3.4795593E-2,7.952979E-2,4.181471E-3,-5.359999E-2,1.4297645E-2,4.749742E-2,4.38388E-2,2.7782906E-2,-1.1511461E-1,5.765226E-2],"categories":[],"categories_nodes":[],"categories_segments":[],"categories_sizes":[],"default_left":[0,0,0,0,0,0,0,0,0,0,0,0,0,0,0,0,0,0,0,0,0,0,0,0,0,0,0,0,0],"id":24,"left_children":[1,3,5,7,9,11,13,15,17,-1,19,21,23,25,27,-1,-1,-1,-1,-1,-1,-1,-1,-1,-1,-1,-1,-1,-1],"loss_changes":[3.6102032E2,3.21568E1,4.624733E1,1.648227E1,2.9407808E1,3.0144207E1,3.307792E1,1.956464E1,1.4221466E1,0E0,8.854706E0,3.3532856E1,1.4554375E1,6.9364777E0,6.172493E1,0E0,0E0,0E0,0E0,0E0,0E0,0E0,0E0,0E0,0E0,0E0,0E0,0E0,0E0],"parents":[2147483647,0,0,1,1,2,2,3,3,4,4,5,5,6,6,7,7,8,8,10,10,11,11,12,12,13,13,14,14],"right_children":[2,4,6,8,10,12,14,16,18,-1,20,22,24,26,28,-1,-1,-1,-1,-1,-1,-1,-1,-1,-1,-1,-1,-1,-1],"split_conditions":[2.0939672E-1,2.1252842E0,1.3578334E0,-1.848955E0,8.2256055E-1,1E0,6.89287E-1,-1.8524888E0,-1.0629869E0,-5.4124434E-2,-1.1456483E-2,1.2253214E0,2.2236814E0,-6.0430384E-1,2.0611773E0,-5.0855696E-2,6.543292E-2,-3.128224E-4,-5.5975515E-2,-3.4795593E-2,7.952979E-2,4.181471E-3,-5.359999E-2,1.4297645E-2,4.749742E-2,4.38388E-2,2.7782906E-2,-1.1511461E-1,5.765226E-2],"split_indices":[0,4,0,0,3,1,4,0,3,0,0,0,3,3,4,0,0,0,0,0,0,0,0,0,0,0,0,0,0],"split_type":[0,0,0,0,0,0,0,0,0,0,0,0,0,0,0,0,0,0,0,0,0,0,0,0,0,0,0,0,0],"sum_hessian":[1.2734246E3,3.07223E2,9.6620154E2,2.8885217E2,1.8370808E1,6.295845E2,3.3661707E2,1.1492527E1,2.7735965E2,7.4995513E0,1.0871257E1,4.8814673E2,1.4143774E2,3.1869727E2,1.7919785E1,5.9058833E0,5.5866437E0,1.2008384E1,2.6535126E2,1.1206133E0,9.750644E0,4.631024E2,2.5044348E1,8.815024E1,5.3287514E1,1.1330376E2,2.0539352E2,9.311314E0,8.608471E0],"tree_param":{"num_deleted":"0","num_feature":"9","num_nodes":"29","size_leaf_vector":"1"}},{"base_weights":[8.923216E-3,-1.1321379E-1,5.271659E-1,-2.1211945E-1,3.7433618E-1,9.1378736E-1,3.683743E-1,-1.2650879E-1,-5.4884696E-1,5.1902044E-1,-9.0708934E-2,9.678381E-1,-3.6773317E-2,-2.6850635E-1,6.201527E-1,-1.859462E-2,2.946234E-3,-3.6299493E-2,8.347778E-3,-2.6199609E-2,3.5390746E-2,5.4997023E-2,2.7546922E-2,1.7934972E-2,-1.0121661E-1,6.504622E-2,2.7531495E-2],"categories":[],"categories_nodes":[],"categories_segments":[],"categories_sizes":[],"default_left":[0,0,0,0,0,0,0,0,0,0,0,0,0,0,0,0,0,0,0,0,0,0,0,0,0,0,0],"id":25,"left_children":[1,3,5,7,9,11,13,15,17,19,-1,21,-1,23,25,-1,-1,-1,-1,-1,-1,-1,-1,-1,-1,-1,-1],"loss_changes":[8.092954E1,5.001909E1,1.4465759E1,2.4723385E1,5.6844955E1,7.306175E0,2.8370966E1,3.1366467E1,2.2261478E1,3.3120827E1,0E0,2.8585281E0,0E0,5.6960197E1,4.8954735E0,0E0,0E0,0E0,0E0,0E0,0E0,0E0,0E0,0E0,0E0,0E0,0E0],"parents":[2147483647,0,0,1,1,2,2,3,3,4,4,5,5,6,6,7,7,8,8,9,9,11,11,13,13,14,14],"right_children":[2,4,6,8,10,12,14,16,18,20,-1,22,-1,24,26,-1,-1,-1,-1,-1,-1,-1,-1,-1,-1,-1,-1],"split_conditions":[1E0,1.8704351E0,-6.622828E-1,4.8414457E-1,1.3431786E0,1.3431786E0,1.4024445E-1,-3.3642522E-1,2.6582822E-1,-9.281855E-2,-9.0708934E-2,1.8925232E-1,-3.6773317E-2,-2.779204E-1,1.6912201E-1,-1.859462E-2,2.946234E-3,-3.6299493E-2,8.347778E-3,-2.6199609E-2,3.5390746E-2,5.4997023E-2,2.7546922E-2,1.7934972E-2,-1.0121661E-1,6.504622E-2,2.7531495E-2],"split_indices":[1,3,3,4,4,4,3,4,3,4,0,4,0,3,3,0,0,0,0,0,0,0,0,0,0,0,0],"split_type":[0,0,0,0,0,0,0,0,0,0,0,0,0,0,0,0,0,0,0,0,0,0,0,0,0,0,0],"sum_hessian":[1.2756619E3,1.0333088E3,2.4235307E2,8.597459E2,1.735629E2,6.84823E1,1.7387077E2,6.871152E2,1.7263077E2,1.6387338E2,9.689521E0,6.690924E1,1.5730577E0,4.923353E1,1.2463725E2,2.951008E2,3.9201437E2,1.3836708E2,3.4263687E1,2.470808E1,1.391653E2,4.894314E1,1.7966103E1,3.715485E1,1.2078675E1,9.087134E0,1.1555012E2],"tree_param":{"num_deleted":"0","num_feature":"9","num_nodes":"27","size_leaf_vector":"1"}},{"base_weights":[-2.544228E-2,-6.513168E-1,3.8329452E-1,-1.1195132E0,-3.522618E-1,1.8546733E-1,5.734206E-1,3.735893E-2,-5.9942167E-2,-4.9443796E-1,3.296405E-1,3.2908833E-1,-7.67476E-1,7.2566277E-1,2.3448853E-1,-5.0338842E-2,5.3052187E-2,-6.0807835E-2,-1.3597988E-2,2.8193716E-2,-3.0892795E-2,-5.855748E-3,2.7701883E-2,-2.292636E-2,-1.0169591E-1,5.4002345E-2,3.1080011E-2,-9.950209E-2,2.041674E-2],"categories":[],"categories_nodes":[],"categories_segments":[],"categories_sizes":[],"default_left":[0,0,0,0,0,0,0,0,0,0,0,0,0,0,0,0,0,0,0,0,0,0,0,0,0,0,0,0,0],"id":26,"left_children":[1,3,5,7,9,11,13,15,-1,17,19,21,23,25,27,-1,-1,-1,-1,-1,-1,-1,-1,-1,-1,-1,-1,-1,-1],"loss_changes":[3.159754E2,6.7728455E1,2.7946152E1,1.7458435E1,2.9324093E1,5.0802597E1,1.9369453E1,1.6155268E1,0E0,3.94521E1,1.2207168E1,3.233934E1,1.7657385E1,8.644913E0,4.7664715E1,0E0,0E0,0E0,0E0,0E0,0E0,0E0,0E0,0E0,0E0,0E0,0E0,0E0,0E0],"parents":[2147483647,0,0,1,1,2,2,3,3,4,4,5,5,6,6,7,7,9,9,10,10,11,11,12,12,13,13,14,14],"right_children":[2,4,6,8,10,12,14,16,-1,18,20,22,24,26,28,-1,-1,-1,-1,-1,-1,-1,-1,-1,-1,-1,-1,-1,-1],"split_conditions":[6.0693246E-1,-2.3230968E-1,-4.040813E-2,-1.848955E0,1E0,-2.685184E-1,1E0,-1.8524888E0,-5.9942167E-2,-5.304311E-1,4.302499E-1,1.0928096E0,-9.793937E-2,7.394444E-1,7.8361505E-1,-5.0338842E-2,5.3052187E-2,-6.0807835E-2,-1.3597988E-2,2.8193716E-2,-3.0892795E-2,-5.855748E-3,2.7701883E-2,-2.292636E-2,-1.0169591E-1,5.4002345E-2,3.1080011E-2,-9.950209E-2,2.041674E-2],"split_indices":[0,0,3,0,1,3,7,0,0,3,0,0,3,0,0,0,0,0,0,0,0,0,0,0,0,0,0,0,0],"split_type":[0,0,0,0,0,0,0,0,0,0,0,0,0,0,0,0,0,0,0,0,0,0,0,0,0,0,0,0,0],"sum_hessian":[1.2321935E3,4.8644257E2,7.45751E2,1.8799887E2,2.984437E2,3.6692587E2,3.788251E2,1.2115289E1,1.7588358E2,2.472952E2,5.11485E1,3.1972165E2,4.7204227E1,2.6022513E2,1.1859996E2,6.009999E0,6.10529E0,5.6690796E1,1.906044E2,4.149716E1,9.651334E0,1.0740167E2,2.1231998E2,3.958946E1,7.6147685E0,5.587502E1,2.0435011E2,7.4608245E0,1.1113914E2],"tree_param":{"num_deleted":"0","num_feature":"9","num_nodes":"29","size_leaf_vector":"1"}},{"base_weights":[4.820129E-2,-1.0226765E0,3.0469292E-1,3.8239352E-2,-1.0758077E0,1.0693441E-1,5.204958E-1,-4.9454223E-2,5.0837632E-2,-1.1304727E0,-8.092163E-3,-9.1792935E-1,2.1467146E-1,7.4547553E-1,4.5109975E-1,-4.854388E-2,-6.108923E-2,-5.2910037E-2,4.739412E-2,4.4019427E-3,-5.895987E-2,2.8039945E-2,3.4381596E-3,1.5589843E-2,4.460532E-2,-7.662169E-3,2.5118222E-2],"categories":[],"categories_nodes":[],"categories_segments":[],"categories_sizes":[],"default_left":[0,0,0,0,0,0,0,0,0,0,0,0,0,0,0,0,0,0,0,0,0,0,0,0,0,0,0],"id":27,"left_children":[1,3,5,7,9,11,13,-1,-1,15,17,19,21,23,25,-1,-1,-1,-1,-1,-1,-1,-1,-1,-1,-1,-1],"loss_changes":[3.5729385E2,1.4231079E1,4.4694336E1,1.5016086E1,1.3961426E1,6.09572E1,7.3227997E0,0E0,0E0,1.5398865E0,1.4728121E1,1.3965855E1,2.5110153E1,6.9520645E0,1.2103775E1,0E0,0E0,0E0,0E0,0E0,0E0,0E0,0E0,0E0,0E0,0E0,0E0],"parents":[2147483647,0,0,1,1,2,2,3,3,4,4,5,5,6,6,9,9,10,10,11,11,12,12,13,13,14,14],"right_children":[2,4,6,8,10,12,14,-1,-1,16,18,20,22,24,26,-1,-1,-1,-1,-1,-1,-1,-1,-1,-1,-1,-1],"split_conditions":[7.68848E-2,-1.848955E0,1.0928096E0,-1.8524888E0,1E0,-4.6463925E-1,-5.415677E-1,-4.9454223E-2,5.0837632E-2,-6.1849606E-1,1E0,-1.0672451E0,-4.1532937E-2,-8.6210275E-1,-3.62068E-1,-4.854388E-2,-6.108923E-2,-5.2910037E-2,4.739412E-2,4.4019427E-3,-5.895987E-2,2.8039945E-2,3.4381596E-3,1.5589843E-2,4.460532E-2,-7.662169E-3,2.5118222E-2],"split_indices":[0,0,0,0,1,4,4,0,0,4,8,4,4,4,4,0,0,0,0,0,0,0,0,0,0,0,0],"split_type":[0,0,0,0,0,0,0,0,0,0,0,0,0,0,0,0,0,0,0,0,0,0,0,0,0,0,0],"sum_hessian":[1.2976039E3,2.4987411E2,1.0477297E3,1.1937061E1,2.3793706E2,5.478925E2,4.9983725E2,5.8153853E0,6.1216755E0,2.2626457E2,1.1672476E1,5.1044495E1,4.96848E2,1.1438644E2,3.854508E2,8.8693954E1,1.3757062E2,5.4859395E0,6.186537E0,1.0728971E1,4.0315525E1,1.460705E2,3.507775E2,3.008777E1,8.429867E1,2.9906672E1,3.5554413E2],"tree_param":{"num_deleted":"0","num_feature":"9","num_nodes":"27","size_leaf_vector":"1"}},{"base_weights":[-1.2305102E-2,-1.0763361E0,2.4039432E-1,-5.3438157E-1,-6.015722E-2,-1.7801638E-1,3.7430742E-1,-8.226225E-1,6.5449744E-2,-9.4418144E-1,-4.11439E-2,4.2129672E-1,-9.7465706E-1,-5.785222E-2,1.8050952E-2,3.271502E-2,-7.0809714E-2,1.7652916E-2,-2.5468698E-2,-7.9393275E-2,2.2191083E-2,-1.0249942E-1,4.7124974E-2],"categories":[],"categories_nodes":[],"categories_segments":[],"categories_sizes":[],"default_left":[0,0,0,0,0,0,0,0,0,0,0,0,0,0,0,0,0,0,0,0,0,0,0],"id":28,"left_children":[1,3,5,7,-1,9,11,13,-1,15,17,19,21,-1,-1,-1,-1,-1,-1,-1,-1,-1,-1],"loss_changes":[3.2907495E2,1.5177246E1,5.5517296E1,2.6712788E1,0E0,2.5195415E1,4.8139458E1,1.7160131E1,0E0,2.8877995E1,3.8271385E1,3.389264E1,5.5859398E1,0E0,0E0,0E0,0E0,0E0,0E0,0E0,0E0,0E0,0E0],"parents":[2147483647,0,0,1,1,2,2,3,3,5,5,6,6,7,7,9,9,10,10,11,11,12,12],"right_children":[2,4,6,8,-1,10,12,14,-1,16,18,20,22,-1,-1,-1,-1,-1,-1,-1,-1,-1,-1],"split_conditions":[7.68848E-2,-7.9189605E-1,6.0693246E-1,-7.983879E-1,-6.015722E-2,-3.236038E-1,1.3431786E0,1.227786E0,6.5449744E-2,-1.0672451E0,3.3028775E-1,-1.0739558E0,1.4903452E0,-5.785222E-2,1.8050952E-2,3.271502E-2,-7.0809714E-2,1.7652916E-2,-2.5468698E-2,-7.9393275E-2,2.2191083E-2,-1.0249942E-1,4.7124974E-2],"split_indices":[0,3,0,3,0,4,4,4,0,4,4,3,0,0,0,0,0,0,0,0,0,0,0],"split_type":[0,0,0,0,0,0,0,0,0,0,0,0,0,0,0,0,0,0,0,0,0,0,0],"sum_hessian":[1.2209293E3,2.3337555E2,9.875538E2,4.5734795E1,1.8764075E2,2.3931656E2,7.4823724E2,4.0268753E1,5.466042E0,3.493198E1,2.0438458E2,7.2404755E2,2.4189655E1,3.1424026E1,8.844727E0,7.831418E0,2.7100561E1,1.111644E2,9.322019E1,6.871684E0,7.171759E2,1.5430675E1,8.75898E0],"tree_param":{"num_deleted":"0","num_feature":"9","num_nodes":"23","size_leaf_vector":"1"}},{"base_weights":[4.9124595E-2,-9.923009E-1,2.8490344E-1,-1.1117568E0,-1.9178553E-1,5.7039734E-2,5.286343E-1,6.044908E-2,-5.9189107E-2,-5.3397387E-2,4.8703656E-1,-6.14572E-1,1.6570887E-1,5.0937617E-1,1.0817941E0,-4.8284266E-2,5.2044164E-2,3.892322E-2,-4.1927975E-2,1.4481562E-2,-4.656714E-2,7.0562474E-2,5.7226066E-3,2.6286518E-2,-7.698534E-2,2.4181915E-2,6.486762E-2],"categories":[],"categories_nodes":[],"categories_segments":[],"categories_sizes":[],"default_left":[0,0,0,0,0,0,0,0,0,0,0,0,0,0,0,0,0,0,0,0,0,0,0,0,0,0,0],"id":29,"left_children":[1,3,5,7,9,11,13,15,-1,-1,17,19,21,23,25,-1,-1,-1,-1,-1,-1,-1,-1,-1,-1,-1,-1],"loss_changes":[3.0619025E2,2.1694733E1,5.6410507E1,1.699379E1,1.9637274E1,3.86187E1,4.4038086E0,1.4591644E1,0E0,0E0,8.278519E0,2.1519999E1,2.8795113E1,1.7209145E1,1.0165672E0,0E0,0E0,0E0,0E0,0E0,0E0,0E0,0E0,0E0,0E0,0E0,0E0],"parents":[2147483647,0,0,1,1,2,2,3,3,4,4,5,5,6,6,7,7,10,10,11,11,12,12,13,13,14,14],"right_children":[2,4,6,8,10,12,14,16,-1,-1,18,20,22,24,26,-1,-1,-1,-1,-1,-1,-1,-1,-1,-1,-1,-1],"split_conditions":[7.68848E-2,1.3175358E0,1.0928096E0,-1.848955E0,-1.8813904E-1,-3.236038E-1,2.0611773E0,-1.8524888E0,-5.9189107E-2,-5.3397387E-2,1E0,-9.774954E-1,-3.107824E-1,1.5226783E0,1E0,-4.8284266E-2,5.2044164E-2,3.892322E-2,-4.1927975E-2,1.4481562E-2,-4.656714E-2,7.0562474E-2,5.7226066E-3,2.6286518E-2,-7.698534E-2,2.4181915E-2,6.486762E-2],"split_indices":[0,4,0,0,0,4,4,0,0,0,7,4,4,4,7,0,0,0,0,0,0,0,0,0,0,0,0],"split_type":[0,0,0,0,0,0,0,0,0,0,0,0,0,0,0,0,0,0,0,0,0,0,0,0,0,0,0],"sum_hessian":[1.2437495E3,2.2871443E2,1.01503516E3,1.9850897E2,3.020545E1,5.2555E2,4.8948514E2,1.150512E1,1.8700386E2,1.28107E1,1.739475E1,7.222043E1,4.533296E2,4.7580148E2,1.3683646E1,5.6325693E0,5.872551E0,1.4767321E1,2.6274297E0,1.877028E1,5.345014E1,1.6345043E1,4.3698456E2,4.7314038E2,2.6611009E0,4.9137883E0,8.769857E0],"tree_param":{"num_deleted":"0","num_feature":"9","num_nodes":"27","size_leaf_vector":"1"}},{"base_weights":[6.9245584E-2,-1.0425738E0,3.0034092E-1,-7.5247236E-2,-1.1004766E0,-1.18398644E-1,4.3035084E-1,7.9106516E-1,-5.2782666E-2,-5.8681358E-2,-3.6836052E-1,-3.032792E-1,4.7641277E-1,-7.649516E-2,4.4816414E-1,-3.7781253E-2,6.913832E-2,-5.6105573E-2,6.076296E-2,-3.9016556E-3,-6.108361E-2,5.3525846E-2,-1.0837399E-2,1.54391E-2,3.12789E-2],"categories":[],"categories_nodes":[],"categories_segments":[],"categories_sizes":[],"default_left":[0,0,0,0,0,0,0,0,0,0,0,0,0,0,0,0,0,0,0,0,0,0,0,0,0],"id":30,"left_children":[1,3,5,7,9,11,13,15,-1,-1,17,19,21,-1,23,-1,-1,-1,-1,-1,-1,-1,-1,-1,-1],"loss_changes":[3.2834308E2,1.2194305E1,5.76556E1,1.3169977E1,1.0458771E1,2.7902199E1,2.922171E1,9.169266E0,0E0,0E0,2.7143732E1,3.9777042E1,2.5171957E1,0E0,1.952481E1,0E0,0E0,0E0,0E0,0E0,0E0,0E0,0E0,0E0,0E0],"parents":[2147483647,0,0,1,1,2,2,3,3,4,4,5,5,6,6,7,7,10,10,11,11,12,12,14,14],"right_children":[2,4,6,8,10,12,14,16,-1,-1,18,20,22,-1,24,-1,-1,-1,-1,-1,-1,-1,-1,-1,-1],"split_conditions":[7.68848E-2,-1.848955E0,6.0693246E-1,-7.9189605E-1,-1.1456483E-2,1.2610964E0,-1.0739558E0,-8.0308884E-1,-5.2782666E-2,-5.8681358E-2,8.2256055E-1,-2.2275714E-2,1.9805727E0,-7.649516E-2,1.3578334E0,-3.7781253E-2,6.913832E-2,-5.6105573E-2,6.076296E-2,-3.9016556E-3,-6.108361E-2,5.3525846E-2,-1.0837399E-2,1.54391E-2,3.12789E-2],"split_indices":[0,0,0,3,0,3,3,3,0,0,3,3,3,0,0,0,0,0,0,0,0,0,0,0,0],"split_type":[0,0,0,0,0,0,0,0,0,0,0,0,0,0,0,0,0,0,0,0,0,0,0,0,0],"sum_hessian":[1.2745883E3,2.1843098E2,1.0561572E3,1.2531329E1,2.0589966E2,2.5025688E2,8.059004E2,6.806562E0,5.7247677E0,1.8637328E2,1.9526388E1,1.9147684E2,5.878005E1,6.1108046E0,7.9978955E2,1.7684158E0,5.038146E0,1.3525726E1,6.000662E0,1.5507132E2,3.6405514E1,3.1211905E1,2.7568144E1,4.5020468E2,3.4958487E2],"tree_param":{"num_deleted":"0","num_feature":"9","num_nodes":"25","size_leaf_vector":"1"}},{"base_weights":[-2.0370116E-2,-6.568445E-1,2.720926E-1,-3.795296E-1,-1.1973383E0,3.0724764E-1,-6.2812555E-1,-9.8836845E-1,-1.1767021E-2,-1.3278252E0,7.031916E-1,-7.817601E-2,3.212277E-1,-9.059558E-2,5.0263125E-1,3.5645206E-2,-5.6860454E-2,-5.622878E-3,6.499805E-2,-5.9144486E-2,-8.604092E-2,7.524571E-2,-4.484498E-2,1.3773419E-2,3.330086E-2,-6.999794E-2,5.0402194E-2],"categories":[],"categories_nodes":[],"categories_segments":[],"categories_sizes":[],"default_left":[0,0,0,0,0,0,0,0,0,0,0,0,0,0,0,0,0,0,0,0,0,0,0,0,0,0,0],"id":31,"left_children":[1,3,5,7,9,11,13,15,17,19,21,-1,23,-1,25,-1,-1,-1,-1,-1,-1,-1,-1,-1,-1,-1,-1],"loss_changes":[2.2113219E2,5.53757E1,2.6050922E1,5.5819153E1,3.2678696E1,2.1268944E1,4.297807E1,2.4990547E1,2.0953459E1,3.6986084E0,1.3677582E1,0E0,1.2028877E1,0E0,1.8534853E1,0E0,0E0,0E0,0E0,0E0,0E0,0E0,0E0,0E0,0E0,0E0,0E0],"parents":[2147483647,0,0,1,1,2,2,3,3,4,4,5,5,6,6,7,7,8,8,9,9,10,10,12,12,14,14],"right_children":[2,4,6,8,10,12,14,16,18,20,22,-1,24,-1,26,-1,-1,-1,-1,-1,-1,-1,-1,-1,-1,-1,-1],"split_conditions":[4.7442055E-1,1E0,1.5226783E0,-2.3230968E-1,2.1252842E0,-1.221102E0,1.1811508E0,-1.848955E0,2.6293101E0,2.0939672E-1,2.253498E0,-7.817601E-2,9.585365E-1,-9.059558E-2,2.0611773E0,3.5645206E-2,-5.6860454E-2,-5.622878E-3,6.499805E-2,-5.9144486E-2,-8.604092E-2,7.524571E-2,-4.484498E-2,1.3773419E-2,3.330086E-2,-6.999794E-2,5.0402194E-2],"split_indices":[0,5,4,0,4,4,0,0,3,0,4,0,4,0,4,0,0,0,0,0,0,0,0,0,0,0,0],"split_type":[0,0,0,0,0,0,0,0,0,0,0,0,0,0,0,0,0,0,0,0,0,0,0,0,0,0,0],"sum_hessian":[1.1850164E3,3.7249725E2,8.1251904E2,2.4787277E2,1.2462449E2,7.8293225E2,2.9586794E1,9.238919E1,1.5548358E2,1.170407E2,7.5837855E0,4.574148E0,7.7835815E2,1.40130205E1,1.5573773E1,6.975338E0,8.541386E1,1.4567288E2,9.810704E0,8.990044E1,2.7140265E1,5.111768E0,2.472018E0,6.895428E2,8.881536E1,2.7115264E0,1.2862247E1],"tree_param":{"num_deleted":"0","num_feature":"9","num_nodes":"27","size_leaf_vector":"1"}},{"base_weights":[3.4832016E-2,-8.1801996E-2,4.063683E-1,-1.7495042E-1,4.1300154E-1,-5.4263777E-1,4.715847E-1,-5.5733666E-2,-6.090932E-1,6.531666E-1,-1.6511968E-1,3.886768E-1,-9.178909E-2,4.045777E-1,8.2834417E-1,-2.088258E-2,3.005145E-3,-5.879862E-2,-1.0598471E-2,4.5148123E-2,-6.6503882E-3,-4.9524754E-2,3.8191948E-2,-6.2296983E-2,5.6685697E-2,2.3033468E-2,-9.912867E-2,-9.2216834E-2,5.142463E-2],"categories":[],"categories_nodes":[],"categories_segments":[],"categories_sizes":[],"default_left":[0,0,0,0,0,0,0,0,0,0,0,0,0,0,0,0,0,0,0,0,0,0,0,0,0,0,0,0,0],"id":32,"left_children":[1,3,5,7,9,11,13,15,17,19,21,23,-1,25,27,-1,-1,-1,-1,-1,-1,-1,-1,-1,-1,-1,-1,-1,-1],"loss_changes":[5.1670586E1,4.1952415E1,1.8014183E1,3.9548107E1,2.0194183E1,2.3970066E1,5.8883553E0,2.5271795E1,3.6699516E1,2.0257671E1,3.4521004E1,1.7088232E1,0E0,3.1899792E1,2.4692837E1,0E0,0E0,0E0,0E0,0E0,0E0,0E0,0E0,0E0,0E0,0E0,0E0,0E0,0E0],"parents":[2147483647,0,0,1,1,2,2,3,3,4,4,5,5,6,6,7,7,8,8,9,9,10,10,11,11,13,13,14,14],"right_children":[2,4,6,8,10,12,14,16,18,20,22,24,-1,26,28,-1,-1,-1,-1,-1,-1,-1,-1,-1,-1,-1,-1,-1,-1],"split_conditions":[1.2610964E0,1E0,-4.0053222E-1,4.2003757E-1,-3.3231762E-1,-8.108171E-1,2.9516642E0,-6.569603E-1,8.944295E-1,1E0,1E0,-8.749241E-1,-9.178909E-2,2.8039186E0,1.8925232E-1,-2.088258E-2,3.005145E-3,-5.879862E-2,-1.0598471E-2,4.5148123E-2,-6.6503882E-3,-4.9524754E-2,3.8191948E-2,-6.2296983E-2,5.6685697E-2,2.3033468E-2,-9.912867E-2,-9.2216834E-2,5.142463E-2],"split_indices":[3,1,4,4,3,4,3,4,4,5,6,4,0,3,4,0,0,0,0,0,0,0,0,0,0,0,0,0,0],"split_type":[0,0,0,0,0,0,0,0,0,0,0,0,0,0,0,0,0,0,0,0,0,0,0,0,0,0,0,0,0],"sum_hessian":[1.1897355E3,9.063732E2,2.833622E2,7.635938E2,1.4277945E2,1.7514633E1,2.658476E2,6.004117E2,1.6318208E2,1.00736465E2,4.2042988E1,1.0791679E1,6.7229533E0,2.26506E2,3.9341595E1,1.4462848E2,4.5578323E2,6.601143E1,9.7170654E1,7.627752E1,2.4458944E1,2.2210075E1,1.9832912E1,3.0629876E0,7.728692E0,2.2248863E2,4.0173545E0,1.8824215E0,3.7459175E1],"tree_param":{"num_deleted":"0","num_feature":"9","num_nodes":"29","size_leaf_vector":"1"}},{"base_weights":[4.3292608E-2,-5.7599034E-2,3.7164506E-1,-7.1318306E-2,-3.356817E-2,6.284875E-1,2.3833281E-1,5.440311E-1,-8.392688E-2,6.929027E-1,-5.9117444E-2,-5.4654896E-1,3.8366136E-1,-6.9647655E-2,3.6480963E-2,-4.020601E-2,-2.768575E-3,2.5958521E-2,5.7517957E-2,1.2432599E-2,-1.15983844E-1,-4.0828274E-3,3.1777557E-2],"categories":[],"categories_nodes":[],"categories_segments":[],"categories_sizes":[],"default_left":[0,0,0,0,0,0,0,0,0,0,0,0,0,0,0,0,0,0,0,0,0,0,0],"id":33,"left_children":[1,3,5,-1,7,9,11,13,15,17,-1,19,21,-1,-1,-1,-1,-1,-1,-1,-1,-1,-1],"loss_changes":[3.9882286E1,3.0237915E1,9.463261E0,0E0,2.6453785E1,1.2399036E1,2.1836285E1,2.7747131E1,1.7119013E1,6.528553E0,0E0,4.3300724E1,1.88409E1,0E0,0E0,0E0,0E0,0E0,0E0,0E0,0E0,0E0,0E0],"parents":[2147483647,0,0,1,1,2,2,4,4,5,5,6,6,7,7,8,8,9,9,11,11,12,12],"right_children":[2,4,6,-1,8,10,12,14,16,18,-1,20,22,-1,-1,-1,-1,-1,-1,-1,-1,-1,-1],"split_conditions":[1.2610964E0,-1.0739558E0,2.0622804E0,-7.1318306E-2,-9.678476E-1,1.5226783E0,2.2870328E0,-6.056747E-1,-1.2852091E0,1E0,-5.9117444E-2,2.4053793E-1,1E0,-6.9647655E-2,3.6480963E-2,-4.020601E-2,-2.768575E-3,2.5958521E-2,5.7517957E-2,1.2432599E-2,-1.15983844E-1,-4.0828274E-3,3.1777557E-2],"split_indices":[3,3,3,0,3,4,3,4,4,8,0,4,5,0,0,0,0,0,0,0,0,0,0],"split_type":[0,0,0,0,0,0,0,0,0,0,0,0,0,0,0,0,0,0,0,0,0,0,0],"sum_hessian":[1.2014147E3,9.1997437E2,2.8144025E2,1.4362657E1,9.0561176E2,9.426175E1,1.871785E2,7.1445755E1,8.3416595E2,9.1918076E1,2.3436782E0,2.8596275E1,1.5858223E2,5.393664E0,6.6052086E1,3.0259262E1,8.0390674E2,6.8938896E1,2.2979177E1,2.0632704E1,7.9635715E0,5.605154E1,1.02530685E2],"tree_param":{"num_deleted":"0","num_feature":"9","num_nodes":"23","size_leaf_vector":"1"}},{"base_weights":[1.6909374E-2,-1.1385404E-1,4.2017114E-1,-6.1154354E-2,-7.122637E-2,-8.6932033E-1,5.082486E-1,-1.4839862E-1,3.535898E-1,-9.149676E-2,3.5260633E-1,7.0981026E-1,3.8328052E-1,-1.8565927E-3,-2.7230818E-2,2.2122148E-2,-8.903652E-2,-5.7666797E-2,4.0722344E-2,3.908633E-2,-6.301609E-2,-1.7138151E-2,2.5869874E-2],"categories":[],"categories_nodes":[],"categories_segments":[],"categories_sizes":[],"default_left":[0,0,0,0,0,0,0,0,0,0,0,0,0,0,0,0,0,0,0,0,0,0,0],"id":34,"left_children":[1,3,5,-1,7,9,11,13,15,-1,17,19,21,-1,-1,-1,-1,-1,-1,-1,-1,-1,-1],"loss_changes":[6.2037098E1,4.1883167E1,3.3379173E1,0E0,2.8182878E1,2.3236115E1,6.407707E0,3.1998957E1,2.6258326E1,0E0,8.091068E0,1.5901035E1,1.6848034E1,0E0,0E0,0E0,0E0,0E0,0E0,0E0,0E0,0E0,0E0],"parents":[2147483647,0,0,1,1,2,2,4,4,5,5,6,6,7,7,8,8,10,10,11,11,12,12],"right_children":[2,4,6,-1,8,10,12,14,16,-1,18,20,22,-1,-1,-1,-1,-1,-1,-1,-1,-1,-1],"split_conditions":[1.2610964E0,-1.221102E0,-3.62068E-1,-6.1154354E-2,1E0,1E0,2.109738E0,4.4568038E-1,2.4500953E-1,-9.149676E-2,1E0,1.5226783E0,2.2870328E0,-1.8565927E-3,-2.7230818E-2,2.2122148E-2,-8.903652E-2,-5.7666797E-2,4.0722344E-2,3.908633E-2,-6.301609E-2,-1.7138151E-2,2.5869874E-2],"split_indices":[3,4,4,0,1,1,3,4,3,0,7,4,3,0,0,0,0,0,0,0,0,0,0],"split_type":[0,0,0,0,0,0,0,0,0,0,0,0,0,0,0,0,0,0,0,0,0,0,0],"sum_hessian":[1.1736018E3,8.870422E2,2.8655966E2,3.1290113E1,8.557521E2,1.7471062E1,2.690886E2,7.2502057E2,1.3073148E2,9.363553E0,8.107509E0,1.0029786E2,1.6879074E2,5.6733954E2,1.5768103E2,1.2664809E2,4.0833917E0,1.3757275E0,6.731781E0,9.763854E1,2.659312E0,2.5954142E1,1.428366E2],"tree_param":{"num_deleted":"0","num_feature":"9","num_nodes":"23","size_leaf_vector":"1"}},{"base_weights":[7.446359E-2,-9.10148E-1,2.5581196E-1,-5.343141E-1,-5.748601E-2,-7.3504075E-2,2.7364832E-1,-7.4916023E-1,1.10227324E-1,1.24339916E-1,4.5214552E-1,3.736859E-2,-4.61397E-2,3.0469322E-3,3.342637E-2,3.3734113E-2,1.5840298E-2],"categories":[],"categories_nodes":[],"categories_segments":[],"categories_sizes":[],"default_left":[0,0,0,0,0,0,0,0,0,0,0,0,0,0,0,0,0],"id":35,"left_children":[1,3,5,7,-1,-1,9,11,-1,13,15,-1,-1,-1,-1,-1,-1],"loss_changes":[2.1965572E2,1.6308441E1,3.256765E1,4.7961487E1,0E0,0E0,2.7339539E1,1.994994E1,0E0,1.9342178E1,1.3778107E1,0E0,0E0,0E0,0E0,0E0,0E0],"parents":[2147483647,0,0,1,1,2,2,3,3,6,6,7,7,9,9,10,10],"right_children":[2,4,6,8,-1,-1,10,12,-1,14,16,-1,-1,-1,-1,-1,-1],"split_conditions":[-1.1456483E-2,-5.270732E-1,-1.0739558E0,-5.304311E-1,-5.748601E-2,-7.3504075E-2,1.0928096E0,-1.848955E0,1.10227324E-1,1E0,-5.149849E-1,3.736859E-2,-4.61397E-2,3.0469322E-3,3.342637E-2,3.3734113E-2,1.5840298E-2],"split_indices":[0,3,3,3,0,0,0,0,0,2,3,0,0,0,0,0,0],"split_type":[0,0,0,0,0,0,0,0,0,0,0,0,0,0,0,0,0],"sum_hessian":[1.2267106E3,1.8985966E2,1.036851E3,7.5797E1,1.14062675E2,9.356534E0,1.0274944E3,7.129413E1,4.5028644E0,5.6087854E2,4.666158E2,6.8965945E0,6.439754E1,5.0384537E2,5.7033195E1,1.7420143E2,2.924144E2],"tree_param":{"num_deleted":"0","num_feature":"9","num_nodes":"17","size_leaf_vector":"1"}},{"base_weights":[7.616945E-3,-8.061091E-1,2.2707646E-1,-5.6510814E-2,-3.910236E-1,-1.20499656E-1,3.1544062E-1,1.2772799E-1,-7.970398E-1,-7.061036E-2,5.3518448E-2,3.486331E-1,-2.6952997E-1,-3.5050076E-2,5.2692175E-2,-6.2786184E-2,4.647322E-2,-6.6611916E-3,2.3792231E-2,1.5138437E-2,4.2680174E-2,-6.642687E-2,3.139917E-2],"categories":[],"categories_nodes":[],"categories_segments":[],"categories_sizes":[],"default_left":[0,0,0,0,0,0,0,0,0,0,0,0,0,0,0,0,0,0,0,0,0,0,0],"id":36,"left_children":[1,3,5,-1,7,9,11,13,15,-1,17,19,21,-1,-1,-1,-1,-1,-1,-1,-1,-1,-1],"loss_changes":[2.073331E2,3.2514603E1,2.8139977E1,0E0,2.3410397E1,4.2017838E1,1.4304108E1,3.9309734E1,5.096849E1,0E0,1.3166054E1,1.5614174E1,3.9282955E1,0E0,0E0,0E0,0E0,0E0,0E0,0E0,0E0,0E0,0E0],"parents":[2147483647,0,0,1,1,2,2,4,4,5,5,6,6,7,7,8,8,10,10,11,11,12,12],"right_children":[2,4,6,-1,8,10,12,14,16,-1,18,20,22,-1,-1,-1,-1,-1,-1,-1,-1,-1,-1],"split_conditions":[2.5356737E-1,-2.3230968E-1,6.0693246E-1,-5.6510814E-2,-4.8163024E-1,-3.236038E-1,1.2790716E0,-6.208693E-1,2.1252842E0,-7.061036E-2,1E0,9.585365E-1,1.9073203E0,-3.5050076E-2,5.2692175E-2,-6.2786184E-2,4.647322E-2,-6.6611916E-3,2.3792231E-2,1.5138437E-2,4.2680174E-2,-6.642687E-2,3.139917E-2],"split_indices":[0,0,0,0,3,4,4,3,4,0,8,4,4,0,0,0,0,0,0,0,0,0,0],"split_type":[0,0,0,0,0,0,0,0,0,0,0,0,0,0,0,0,0,0,0,0,0,0,0],"sum_hessian":[1.1579728E3,2.4511392E2,9.128588E2,1.3618983E2,1.0892408E2,1.8492397E2,7.279348E2,4.8274143E1,6.0649937E1,2.0687935E1,1.6423604E2,6.8942163E2,3.8513226E1,2.5668993E1,2.260515E1,4.8242317E1,1.24076185E1,1.1459275E2,4.9643284E1,6.3421765E2,5.5203987E1,1.733669E1,2.1176535E1],"tree_param":{"num_deleted":"0","num_feature":"9","num_nodes":"23","size_leaf_vector":"1"}},{"base_weights":[1.6371267E-2,-1.161968E-1,4.0313008E-1,-2.1622969E-1,4.2162672E-1,6.977573E-1,2.279203E-1,-6.427465E-2,-1.9620311E-1,9.5962477E-1,-1.8046279E-1,8.5202587E-1,4.4381708E-1,-6.529526E-1,3.9861268E-1,6.626892E-4,-1.4963913E-2,5.5711575E-2,3.0009195E-2,-4.019381E-2,2.8425077E-2,4.6770908E-2,1.1279185E-2,2.7366696E-2,-6.411355E-2,-1.2226375E-2,-1.01244226E-1,2.7195413E-2,-4.41688E-3],"categories":[],"categories_nodes":[],"categories_segments":[],"categories_sizes":[],"default_left":[0,0,0,0,0,0,0,0,0,0,0,0,0,0,0,0,0,0,0,0,0,0,0,0,0,0,0,0,0],"id":37,"left_children":[1,3,5,7,9,11,13,-1,15,17,19,21,23,25,27,-1,-1,-1,-1,-1,-1,-1,-1,-1,-1,-1,-1,-1,-1],"loss_changes":[5.966815E1,4.677235E1,1.5096031E1,1.5293949E1,4.4459343E1,3.7439919E0,2.8734114E1,0E0,1.5554832E1,3.0146332E0,3.133966E1,3.1746788E0,9.04336E0,1.6721466E1,1.1310284E1,0E0,0E0,0E0,0E0,0E0,0E0,0E0,0E0,0E0,0E0,0E0,0E0,0E0,0E0],"parents":[2147483647,0,0,1,1,2,2,3,3,4,4,5,5,6,6,8,8,9,9,10,10,11,11,12,12,13,13,14,14],"right_children":[2,4,6,8,10,12,14,-1,16,18,20,22,24,26,28,-1,-1,-1,-1,-1,-1,-1,-1,-1,-1,-1,-1,-1,-1],"split_conditions":[1.2610964E0,1E0,2.0622804E0,-1.0739558E0,-6.622828E-1,1E0,2.2870328E0,-6.427465E-2,-6.0430384E-1,1E0,1E0,1E0,1E0,2.2236814E0,1E0,6.626892E-4,-1.4963913E-2,5.5711575E-2,3.0009195E-2,-4.019381E-2,2.8425077E-2,4.6770908E-2,1.1279185E-2,2.7366696E-2,-6.411355E-2,-1.2226375E-2,-1.01244226E-1,2.7195413E-2,-4.41688E-3],"split_indices":[3,1,3,3,3,7,3,0,3,5,6,1,2,3,6,0,0,0,0,0,0,0,0,0,0,0,0,0,0],"split_type":[0,0,0,0,0,0,0,0,0,0,0,0,0,0,0,0,0,0,0,0,0,0,0,0,0,0,0,0,0],"sum_hessian":[1.1608895E3,8.653319E2,2.9555765E2,7.3038104E2,1.3495085E2,1.0854994E2,1.870077E2,1.1685451E1,7.186956E2,7.079823E1,6.415262E1,6.5329475E1,4.3220467E1,2.9667585E1,1.5734013E2,2.3746172E2,4.812339E2,4.730223E1,2.3496006E1,3.4950764E1,2.920185E1,5.7001564E1,8.32791E0,4.1741505E1,1.4789604E0,2.4223564E1,5.44402E0,1.2104688E2,3.6293247E1],"tree_param":{"num_deleted":"0","num_feature":"9","num_nodes":"29","size_leaf_vector":"1"}},{"base_weights":[5.733454E-3,-1.0622983E-1,4.5466673E-1,-3.3674183E-1,1.8796228E-1,8.919155E-1,2.584392E-1,-2.2138472E-1,-8.618825E-1,1.1595972E0,1.19442455E-1,9.391918E-1,-3.5982106E-2,-2.0204313E-1,4.5832348E-1,-2.2736182E-2,3.5000094E-3,-7.930269E-2,-2.4560984E-2,4.077616E-2,7.479545E-2,-2.6495516E-2,1.3074474E-2,5.795748E-2,3.7585467E-2,1.5510568E-2,-9.153318E-2,1.62035E-2,5.182763E-2],"categories":[],"categories_nodes":[],"categories_segments":[],"categories_sizes":[],"default_left":[0,0,0,0,0,0,0,0,0,0,0,0,0,0,0,0,0,0,0,0,0,0,0,0,0,0,0,0,0],"id":38,"left_children":[1,3,5,7,9,11,13,15,17,19,21,23,-1,25,27,-1,-1,-1,-1,-1,-1,-1,-1,-1,-1,-1,-1,-1,-1],"loss_changes":[5.8137463E1,6.2879303E1,1.9463722E1,3.11922E1,2.693488E1,6.4160385E0,1.5001415E1,2.9152086E1,2.3813347E1,1.2578888E0,3.5489876E1,1.5605164E0,0E0,4.2495914E1,8.272612E0,0E0,0E0,0E0,0E0,0E0,0E0,0E0,0E0,0E0,0E0,0E0,0E0,0E0,0E0],"parents":[2147483647,0,0,1,1,2,2,3,3,4,4,5,5,6,6,7,7,8,8,9,9,10,10,11,11,13,13,14,14],"right_children":[2,4,6,8,10,12,14,16,18,20,22,24,-1,26,28,-1,-1,-1,-1,-1,-1,-1,-1,-1,-1,-1,-1,-1,-1],"split_conditions":[1E0,-4.040813E-2,-6.622828E-1,-2.857554E-1,-2.2275714E-2,1.3431786E0,1.4024445E-1,1.251453E-1,-2.0821118E-1,1E0,-3.236038E-1,-1.8256837E-1,-3.5982106E-2,-2.779204E-1,2.9516642E0,-2.2736182E-2,3.5000094E-3,-7.930269E-2,-2.4560984E-2,4.077616E-2,7.479545E-2,-2.6495516E-2,1.3074474E-2,5.795748E-2,3.7585467E-2,1.5510568E-2,-9.153318E-2,1.62035E-2,5.182763E-2],"split_indices":[1,3,3,3,3,4,3,4,4,8,4,4,0,3,3,0,0,0,0,0,0,0,0,0,0,0,0,0,0],"split_type":[0,0,0,0,0,0,0,0,0,0,0,0,0,0,0,0,0,0,0,0,0,0,0,0,0,0,0,0,0],"sum_hessian":[1.1537E3,9.2432074E2,2.2937914E2,5.181283E2,4.0619247E2,6.940586E1,1.5997327E2,4.265589E2,9.156939E1,2.5184347E1,3.8100812E2,6.80358E1,1.3700618E0,4.8416897E1,1.1155637E2,2.3640593E2,1.9015297E2,2.9336208E1,6.223318E1,1.4987885E1,1.0196462E1,6.765137E1,3.1335675E2,2.7729267E1,4.030653E1,3.775576E1,1.0661136E1,9.243537E1,1.9121008E1],"tree_param":{"num_deleted":"0","num_feature":"9","num_nodes":"29","size_leaf_vector":"1"}},{"base_weights":[1.0349248E-3,-5.5932738E-2,1.4368656E-1,-6.0076334E-2,3.806922E-1,8.022418E-2,-4.9147403E-1,-6.1927658E-2,3.916591E-1,-2.521995E-2,7.650342E-3,-1.4572392E-2,-1.2523867E-1,3.3243805E-2,1.5650885E-2],"categories":[],"categories_nodes":[],"categories_segments":[],"categories_sizes":[],"default_left":[0,0,0,0,0,0,0,0,0,0,0,0,0,0,0],"id":39,"left_children":[1,-1,3,5,7,9,11,-1,13,-1,-1,-1,-1,-1,-1],"loss_changes":[1.7696425E2,0E0,4.7492535E1,3.2120094E1,8.798782E0,1.717867E1,5.134099E1,0E0,9.412155E0,0E0,0E0,0E0,0E0,0E0,0E0],"parents":[2147483647,0,0,2,2,3,3,4,4,5,5,6,6,8,8],"right_children":[2,-1,4,6,8,10,12,-1,14,-1,-1,-1,-1,-1,-1],"split_conditions":[-2.3230968E-1,-5.5932738E-2,1.0928096E0,7.394444E-1,-1.221102E0,-4.2617503E-1,2.0622804E0,-6.1927658E-2,-5.415677E-1,-2.521995E-2,7.650342E-3,-1.4572392E-2,-1.2523867E-1,3.3243805E-2,1.5650885E-2],"split_indices":[0,0,0,0,4,4,3,0,4,0,0,0,0,0,0],"split_type":[0,0,0,0,0,0,0,0,0,0,0,0,0,0,0],"sum_hessian":[1.1049175E3,1.23702126E2,9.812154E2,5.282114E2,4.5300397E2,3.995044E2,1.2870702E2,1.9179555E0,4.51086E2,4.3245075E1,3.562593E2,1.1863726E2,1.0069757E1,9.831992E1,3.5276608E2],"tree_param":{"num_deleted":"0","num_feature":"9","num_nodes":"15","size_leaf_vector":"1"}},{"base_weights":[5.422021E-2,-7.8230387E-1,2.4672659E-1,-5.512129E-1,-5.7561535E-2,-7.134446E-2,2.648674E-1,-6.600732E-1,8.194996E-2,-3.0006183E-2,3.6348596E-1,2.6359348E-2,-3.7371505E-2,3.2207366E-2,-1.1234728E-2,2.6741732E-2,1.0213436E-2],"categories":[],"categories_nodes":[],"categories_segments":[],"categories_sizes":[],"default_left":[0,0,0,0,0,0,0,0,0,0,0,0,0,0,0,0,0],"id":40,"left_children":[1,3,5,7,-1,-1,9,11,-1,13,15,-1,-1,-1,-1,-1,-1],"loss_changes":[1.8488683E2,1.7361557E1,2.8893597E1,3.3799393E1,0E0,0E0,2.6893951E1,1.4035961E1,0E0,3.0802025E1,1.8735092E1,0E0,0E0,0E0,0E0,0E0,0E0],"parents":[2147483647,0,0,1,1,2,2,3,3,6,6,7,7,9,9,10,10],"right_children":[2,4,6,8,-1,-1,10,12,-1,14,16,-1,-1,-1,-1,-1,-1],"split_conditions":[2.0939672E-1,-2.7232397E-1,-1.0739558E0,-2.779204E-1,-5.7561535E-2,-7.134446E-2,6.511031E-1,-1.848955E0,8.194996E-2,-7.088451E-1,-2.8711535E-2,2.6359348E-2,-3.7371505E-2,3.2207366E-2,-1.1234728E-2,2.6741732E-2,1.0213436E-2],"split_indices":[0,3,3,3,0,0,0,0,0,3,4,0,0,0,0,0,0],"split_type":[0,0,0,0,0,0,0,0,0,0,0,0,0,0,0,0,0],"sum_hessian":[1.1448092E3,2.13306E2,9.3150323E2,1.3345357E2,7.985243E1,8.739499E0,9.2276373E2,1.281329E2,5.3206635E0,2.3152823E2,6.912355E2,8.264082E0,1.1986883E2,5.1104427E1,1.804238E2,3.312295E2,3.6000598E2],"tree_param":{"num_deleted":"0","num_feature":"9","num_nodes":"17","size_leaf_vector":"1"}},{"base_weights":[4.191911E-2,-7.177563E-1,2.1585535E-1,-9.8144346E-1,-3.6510003E-1,7.3107615E-2,3.7593147E-1,3.4692743E-1,-5.491304E-2,-4.647999E-1,5.9681732E-2,1.6634162E-1,-4.3283254E-1,-4.5902807E-2,4.6363708E-1,-4.085552E-2,5.4488387E-2,2.7201436E-3,-4.3618165E-2,-1.423793E-2,1.4061943E-2,-4.0485974E-2,2.076016E-2,6.900331E-2,-1.485582E-2,2.8940944E-2,1.0796762E-2],"categories":[],"categories_nodes":[],"categories_segments":[],"categories_sizes":[],"default_left":[0,0,0,0,0,0,0,0,0,0,0,0,0,0,0,0,0,0,0,0,0,0,0,0,0,0,0],"id":41,"left_children":[1,3,5,7,9,11,13,15,-1,17,-1,19,21,23,25,-1,-1,-1,-1,-1,-1,-1,-1,-1,-1,-1,-1],"loss_changes":[1.5136066E2,1.930967E1,2.1251095E1,1.9383797E1,1.539367E1,2.3430538E1,1.6269356E1,1.0794821E1,0E0,1.8935278E1,0E0,2.1814991E1,2.5226849E1,2.8165398E1,1.0182701E1,0E0,0E0,0E0,0E0,0E0,0E0,0E0,0E0,0E0,0E0,0E0,0E0],"parents":[2147483647,0,0,1,1,2,2,3,3,4,4,5,5,6,6,7,7,9,9,11,11,12,12,13,13,14,14],"right_children":[2,4,6,8,10,12,14,16,-1,18,-1,20,22,24,26,-1,-1,-1,-1,-1,-1,-1,-1,-1,-1,-1,-1],"split_conditions":[2.0939672E-1,-2.3230968E-1,-4.040813E-2,-1.848955E0,2.6293101E0,-2.5732553E-1,5.6276184E-1,-1.8524888E0,-5.491304E-2,-5.270732E-1,5.9681732E-2,6.0693246E-1,1E0,-2.2275714E-2,1E0,-4.085552E-2,5.4488387E-2,2.7201436E-3,-4.3618165E-2,-1.423793E-2,1.4061943E-2,-4.0485974E-2,2.076016E-2,6.900331E-2,-1.485582E-2,2.8940944E-2,1.0796762E-2],"split_indices":[0,0,3,0,3,3,0,0,0,3,0,0,8,3,7,0,0,0,0,0,0,0,0,0,0,0,0],"split_type":[0,0,0,0,0,0,0,0,0,0,0,0,0,0,0,0,0,0,0,0,0,0,0,0,0,0,0],"sum_hessian":[1.1422407E3,2.1193108E2,9.3030963E2,1.1973136E2,9.2199715E1,4.9292728E2,4.3738235E2,9.439278E0,1.1029208E2,8.7646385E1,4.55333E0,4.170759E2,7.585137E1,7.54084E1,3.6197394E2,3.6187265E0,5.8205514E0,3.91158E1,4.8530586E1,8.421607E1,3.3285983E2,5.2560173E1,2.3291199E1,1.0285307E1,6.512309E1,2.4571219E2,1.1626175E2],"tree_param":{"num_deleted":"0","num_feature":"9","num_nodes":"27","size_leaf_vector":"1"}},{"base_weights":[1.5783723E-2,-9.233996E-1,1.7810407E-1,2.3723885E-1,-1.0023377E0,2.8671963E-2,4.730709E-1,-4.2373825E-2,5.231734E-2,-5.567353E-2,-2.9033005E-1,5.420321E-2,-7.9335675E-2,5.205604E-1,-2.491161E-1,6.366644E-2,-5.3609103E-2,-2.5823692E-2,5.965712E-3,3.8085356E-2,1.906356E-2,-1.0167258E-1,7.829712E-3],"categories":[],"categories_nodes":[],"categories_segments":[],"categories_sizes":[],"default_left":[0,0,0,0,0,0,0,0,0,0,0,0,0,0,0,0,0,0,0,0,0,0,0],"id":42,"left_children":[1,3,5,7,9,11,13,-1,-1,-1,15,17,-1,19,21,-1,-1,-1,-1,-1,-1,-1,-1],"loss_changes":[1.6890146E2,1.5315338E1,4.161243E1,1.1519878E1,1.1634247E1,2.6051176E1,1.1083923E1,0E0,0E0,0E0,2.980873E1,2.3137325E1,0E0,9.587524E0,1.5394108E1,0E0,0E0,0E0,0E0,0E0,0E0,0E0,0E0],"parents":[2147483647,0,0,1,1,2,2,3,3,4,4,5,5,6,6,10,10,11,11,13,13,14,14],"right_children":[2,4,6,8,10,12,14,-1,-1,-1,16,18,-1,20,22,-1,-1,-1,-1,-1,-1,-1,-1],"split_conditions":[7.68848E-2,-1.848955E0,1.3578334E0,-1.8524888E0,1E0,2.471462E0,1.7111984E0,-4.2373825E-2,5.231734E-2,-5.567353E-2,-6.1849606E-1,-7.831656E-1,-7.9335675E-2,-6.0430384E-1,-5.2058136E-1,6.366644E-2,-5.3609103E-2,-2.5823692E-2,5.965712E-3,3.8085356E-2,1.906356E-2,-1.0167258E-1,7.829712E-3],"split_indices":[0,0,0,0,6,4,0,0,0,0,4,3,0,3,3,0,0,0,0,0,0,0,0],"split_type":[0,0,0,0,0,0,0,0,0,0,0,0,0,0,0,0,0,0,0,0,0,0,0],"sum_hessian":[1.104806E3,1.6177058E2,9.430355E2,1.0110239E1,1.5166034E2,6.270259E2,3.160096E2,4.2890606E0,5.8211784E0,1.3045299E2,2.1207354E1,6.18697E2,8.328868E0,2.9690457E2,1.9105038E1,6.7549453E0,1.4452409E1,6.229585E1,5.564012E2,1.0625171E2,1.9065286E2,2.4243784E0,1.668066E1],"tree_param":{"num_deleted":"0","num_feature":"9","num_nodes":"23","size_leaf_vector":"1"}},{"base_weights":[1.7455708E-2,-7.310953E-1,1.9134498E-1,-8.3779657E-1,4.812638E-1,4.7944207E-2,3.460128E-1,2.3072891E-1,-8.9716834E-1,-4.3228723E-2,9.841847E-1,1.8068941E-1,-2.521962E-1,5.609544E-1,2.8200698E-1,-4.154873E-2,4.9106702E-2,-5.70215E-2,-2.6159927E-2,7.452986E-2,-5.0864857E-2,-1.2528767E-2,1.9895095E-2,7.959507E-3,-5.1161468E-2,-6.4293E-2,3.062962E-2,-9.98306E-2,1.5500593E-2],"categories":[],"categories_nodes":[],"categories_segments":[],"categories_sizes":[],"default_left":[0,0,0,0,0,0,0,0,0,0,0,0,0,0,0,0,0,0,0,0,0,0,0,0,0,0,0,0,0],"id":43,"left_children":[1,3,5,7,9,11,13,15,17,-1,19,21,23,25,27,-1,-1,-1,-1,-1,-1,-1,-1,-1,-1,-1,-1,-1,-1],"loss_changes":[1.4462398E2,2.7700249E1,1.9970203E1,1.2558365E1,1.338934E1,1.877571E1,5.726265E0,1.0283478E1,1.5771652E1,0E0,1.6190231E1,3.0727863E1,4.611364E1,1.0522333E1,2.2435156E1,0E0,0E0,0E0,0E0,0E0,0E0,0E0,0E0,0E0,0E0,0E0,0E0,0E0,0E0],"parents":[2147483647,0,0,1,1,2,2,3,3,4,4,5,5,6,6,7,7,8,8,10,10,11,11,12,12,13,13,14,14],"right_children":[2,4,6,8,10,12,14,16,18,-1,20,22,24,26,28,-1,-1,-1,-1,-1,-1,-1,-1,-1,-1,-1,-1,-1,-1],"split_conditions":[2.5356737E-1,2.1252842E0,1.0928096E0,-1.848955E0,-1.1456483E-2,1E0,-5.415677E-1,-1.8524888E0,9.95025E-2,-4.3228723E-2,1.2105543E-1,6.0693246E-1,6.511031E-1,1.1811508E0,-4.7746065E-1,-4.154873E-2,4.9106702E-2,-5.70215E-2,-2.6159927E-2,7.452986E-2,-5.0864857E-2,-1.2528767E-2,1.9895095E-2,7.959507E-3,-5.1161468E-2,-6.4293E-2,3.062962E-2,-9.98306E-2,1.5500593E-2],"split_indices":[0,4,0,0,0,7,4,0,4,0,0,0,0,0,4,0,0,0,0,0,0,0,0,0,0,0,0,0,0],"split_type":[0,0,0,0,0,0,0,0,0,0,0,0,0,0,0,0,0,0,0,0,0,0,0,0,0,0,0,0,0],"sum_hessian":[1.10797E3,2.0795737E2,9.000126E2,1.9156126E2,1.6396114E1,4.6803625E2,4.3197632E2,9.855768E0,1.8170549E2,4.166832E0,1.2229282E1,3.2492593E2,1.431103E2,9.644677E1,3.3552954E2,4.0186896E0,5.8370786E0,1.0822954E2,7.347596E1,1.0065422E1,2.1638606E0,1.087593E2,2.1616664E2,9.409567E1,4.901463E1,1.6481771E0,9.479859E1,2.793503E0,3.3273602E2],"tree_param":{"num_deleted":"0","num_feature":"9","num_nodes":"29","size_leaf_vector":"1"}},{"base_weights":[6.706308E-2,-4.155363E-1,1.316805E-1,-6.845632E-2,-2.8765398E-1,1.0682831E0,1.0060518E-1,3.3760065E-1,-7.053543E-1,-4.8658337E-2,1.2681764E0,-1.3626629E-2,3.5144407E-1,2.8522877E-2,-2.5810868E-2,-6.557146E-2,-2.2617824E-2,6.9942884E-2,1.5525964E-2,1.0843222E-3,-5.2025396E-2,-8.383848E-2,1.9831311E-2],"categories":[],"categories_nodes":[],"categories_segments":[],"categories_sizes":[],"default_left":[0,0,0,0,0,0,0,0,0,0,0,0,0,0,0,0,0,0,0,0,0,0,0],"id":44,"left_children":[1,3,5,-1,7,9,11,13,15,-1,17,19,21,-1,-1,-1,-1,-1,-1,-1,-1,-1,-1],"loss_changes":[3.4685608E1,1.543215E1,2.8354715E1,0E0,3.1110912E1,1.4626797E1,2.7226719E1,1.0019671E1,1.0009163E1,0E0,2.998539E0,2.3754805E1,2.8241585E1,0E0,0E0,0E0,0E0,0E0,0E0,0E0,0E0,0E0,0E0],"parents":[2147483647,0,0,1,1,2,2,4,4,5,5,6,6,7,7,8,8,10,10,11,11,12,12],"right_children":[2,4,6,-1,8,10,12,14,16,-1,18,20,22,-1,-1,-1,-1,-1,-1,-1,-1,-1,-1],"split_conditions":[-6.569603E-1,-7.983879E-1,-6.1849606E-1,-6.845632E-2,-5.344605E-1,-6.3362914E-1,6.918281E-1,-8.8774556E-1,-2.2822414E-1,-4.8658337E-2,2.4500953E-1,3.2828432E-1,-4.0053222E-1,2.8522877E-2,-2.5810868E-2,-6.557146E-2,-2.2617824E-2,6.9942884E-2,1.5525964E-2,1.0843222E-3,-5.2025396E-2,-8.383848E-2,1.9831311E-2],"split_indices":[4,3,4,0,3,3,3,4,3,0,3,3,4,0,0,0,0,0,0,0,0,0,0],"split_type":[0,0,0,0,0,0,0,0,0,0,0,0,0,0,0,0,0,0,0,0,0,0,0],"sum_hessian":[1.1081449E3,1.29892E2,9.7825287E2,1.3637909E1,1.162541E2,2.9807135E1,9.4844574E2,4.6674614E1,6.957948E1,2.140832E0,2.7666302E1,6.526486E2,2.957971E2,3.7064137E1,9.6104765E0,1.8643137E1,5.0936344E1,2.3736216E1,3.930087E0,6.3237054E2,2.0278055E1,5.26545E0,2.9053165E2],"tree_param":{"num_deleted":"0","num_feature":"9","num_nodes":"23","size_leaf_vector":"1"}},{"base_weights":[5.1954743E-2,-1.738819E-1,1.4869769E-1,9.493845E-3,-5.393186E-1,1.0494189E-1,6.619178E-1,6.256692E-2,-1.0890658E0,-9.73615E-1,6.038494E-3,4.2641526E-1,2.2214063E-2,6.883065E-2,7.2851753E-1,-9.549814E-3,1.3368303E-2,-9.551108E-2,-3.583666E-4,4.203787E-2,-5.8624875E-2,5.858476E-2,-1.23792365E-2,-6.1659217E-2,2.5431463E-2,4.8226193E-2,-7.4041286E-4,4.3265328E-2,-8.657209E-2,1.6497156E-2,4.464896E-2],"categories":[],"categories_nodes":[],"categories_segments":[],"categories_sizes":[],"default_left":[0,0,0,0,0,0,0,0,0,0,0,0,0,0,0,0,0,0,0,0,0,0,0,0,0,0,0,0,0,0,0],"id":45,"left_children":[1,3,5,7,9,11,13,15,17,19,21,23,25,27,29,-1,-1,-1,-1,-1,-1,-1,-1,-1,-1,-1,-1,-1,-1,-1,-1],"loss_changes":[2.421813E1,2.2295683E1,1.7313099E1,1.3100439E1,2.6335953E1,1.9039835E1,2.3203735E0,1.11938505E1,9.179507E0,2.3810951E1,1.5444195E1,2.0937141E1,1.9955662E1,1.3402008E1,3.1219692E0,0E0,0E0,0E0,0E0,0E0,0E0,0E0,0E0,0E0,0E0,0E0,0E0,0E0,0E0,0E0,0E0],"parents":[2147483647,0,0,1,1,2,2,3,3,4,4,5,5,6,6,7,7,8,8,9,9,10,10,11,11,12,12,13,13,14,14],"right_children":[2,4,6,8,10,12,14,16,18,20,22,24,26,28,30,-1,-1,-1,-1,-1,-1,-1,-1,-1,-1,-1,-1,-1,-1,-1,-1],"split_conditions":[-2.0821118E-1,1E0,2.737881E0,2.0622804E0,-4.040813E-2,-7.294399E-1,1.8925232E-1,-6.569603E-1,-3.107824E-1,-1.1140262E0,-3.1677708E-2,-1.0739558E0,-1.9538978E-1,-1.8256837E-1,2.9516642E0,-9.549814E-3,1.3368303E-2,-9.551108E-2,-3.583666E-4,4.203787E-2,-5.8624875E-2,5.858476E-2,-1.23792365E-2,-6.1659217E-2,2.5431463E-2,4.8226193E-2,-7.4041286E-4,4.3265328E-2,-8.657209E-2,1.6497156E-2,4.464896E-2],"split_indices":[4,5,3,3,3,3,4,4,4,3,3,3,4,4,3,0,0,0,0,0,0,0,0,0,0,0,0,0,0,0,0],"split_type":[0,0,0,0,0,0,0,0,0,0,0,0,0,0,0,0,0,0,0,0,0,0,0,0,0,0,0,0,0,0,0],"sum_hessian":[1.1052023E3,3.3109604E2,7.7410626E2,2.2143913E2,1.0965689E2,7.149575E2,5.9148693E1,2.1258348E2,8.85566E0,6.0388474E1,4.926842E1,1.4505487E2,5.6990265E2,6.2793927E0,5.28693E1,9.502878E1,1.17554695E2,4.381609E0,4.474051E0,5.4873343E0,5.490114E1,7.8339076E0,4.1434513E1,5.8554416E0,1.3919943E2,2.0123783E1,5.497789E2,4.893453E0,1.3859395E0,1.6760168E1,3.610913E1],"tree_param":{"num_deleted":"0","num_feature":"9","num_nodes":"31","size_leaf_vector":"1"}},{"base_weights":[-1.4618221E-3,-8.1964654E-1,1.3819085E-1,-4.31834E-1,-5.5094082E-2,6.126141E-2,4.0401906E-1,-6.60984E-1,9.8308034E-2,1.1518299E-1,-5.824868E-1,-6.1570436E-2,4.4893283E-1,-4.25119E-2,4.040586E-2,2.405932E-3,3.6911804E-2,-6.0186815E-2,2.4428654E-3,2.4289794E-2,-4.1944914E-2],"categories":[],"categories_nodes":[],"categories_segments":[],"categories_sizes":[],"default_left":[0,0,0,0,0,0,0,0,0,0,0,0,0,0,0,0,0,0,0,0,0],"id":46,"left_children":[1,3,5,7,-1,9,11,13,-1,15,17,-1,19,-1,-1,-1,-1,-1,-1,-1,-1],"loss_changes":[1.2260382E2,1.6409752E1,1.8706907E1,3.9515255E1,0E0,2.4837282E1,1.5920269E1,1.8692232E1,0E0,2.7474506E1,2.1787996E1,0E0,1.015625E1,0E0,0E0,0E0,0E0,0E0,0E0,0E0,0E0],"parents":[2147483647,0,0,1,1,2,2,3,3,5,5,6,6,7,7,9,9,10,10,12,12],"right_children":[2,4,6,8,-1,10,12,14,-1,16,18,-1,20,-1,-1,-1,-1,-1,-1,-1,-1],"split_conditions":[7.68848E-2,-5.270732E-1,1E0,-5.304311E-1,-5.5094082E-2,1.2790716E0,2.97738E-1,1E0,9.8308034E-2,9.585365E-1,1.679709E0,-6.1570436E-2,1.6670278E0,-4.25119E-2,4.040586E-2,2.405932E-3,3.6911804E-2,-6.0186815E-2,2.4428654E-3,2.4289794E-2,-4.1944914E-2],"split_indices":[0,3,1,3,0,4,0,1,0,4,3,0,0,0,0,0,0,0,0,0,0],"split_type":[0,0,0,0,0,0,0,0,0,0,0,0,0,0,0,0,0,0,0,0,0],"sum_hessian":[1.0700222E3,1.5494432E2,9.150778E2,6.686365E1,8.808068E1,7.111268E2,2.0395107E2,6.20233E1,4.840345E0,6.573016E2,5.3825214E1,4.3922434E0,1.9955882E2,5.5504875E1,6.5184255E0,5.94885E2,6.2416542E1,2.6444046E1,2.7381168E1,1.9491374E2,4.64507E0],"tree_param":{"num_deleted":"0","num_feature":"9","num_nodes":"21","size_leaf_vector":"1"}},{"base_weights":[-3.921996E-2,-5.827129E-1,2.0938247E-1,-9.91841E-1,-3.1869593E-1,2.3576528E-2,4.156876E-1,2.5913712E-1,-5.4789055E-2,-8.729701E-1,4.6298787E-2,-3.5019636E-1,2.4294277E-1,-2.769668E-1,5.0955963E-1,4.8158787E-2,-4.334108E-2,-7.403257E-2,-1.3137708E-2,3.564351E-2,-2.1885667E-2,-2.4002322E-3,-5.4154266E-2,1.7894987E-2,-5.1941033E-2,-4.1218292E-2,3.0451179E-2,2.6349882E-2,-6.2340397E-2],"categories":[],"categories_nodes":[],"categories_segments":[],"categories_sizes":[],"default_left":[0,0,0,0,0,0,0,0,0,0,0,0,0,0,0,0,0,0,0,0,0,0,0,0,0,0,0,0,0],"id":47,"left_children":[1,3,5,7,9,11,13,15,-1,17,19,21,23,25,27,-1,-1,-1,-1,-1,-1,-1,-1,-1,-1,-1,-1,-1,-1],"loss_changes":[1.4334415E2,3.548938E1,2.7895987E1,1.7313202E1,4.144637E1,3.1668839E1,2.263971E1,1.0111976E1,0E0,2.956361E1,4.0722256E1,3.156709E1,3.6406845E1,2.1190527E1,1.0305435E1,0E0,0E0,0E0,0E0,0E0,0E0,0E0,0E0,0E0,0E0,0E0,0E0,0E0,0E0],"parents":[2147483647,0,0,1,1,2,2,3,3,4,4,5,5,6,6,7,7,9,9,10,10,11,11,12,12,13,13,14,14],"right_children":[2,4,6,8,10,12,14,16,-1,18,20,22,24,26,28,-1,-1,-1,-1,-1,-1,-1,-1,-1,-1,-1,-1,-1,-1],"split_conditions":[5.6276184E-1,-1.1456483E-2,7.017722E-2,-1.848955E0,-2.779204E-1,1.0928096E0,-3.236038E-1,-7.9189605E-1,-5.4789055E-2,1E0,-2.2275714E-2,1E0,-1.4629248E-1,1E0,2.471462E0,4.8158787E-2,-4.334108E-2,-7.403257E-2,-1.3137708E-2,3.564351E-2,-2.1885667E-2,-2.4002322E-3,-5.4154266E-2,1.7894987E-2,-5.1941033E-2,-4.1218292E-2,3.0451179E-2,2.6349882E-2,-6.2340397E-2],"split_indices":[0,0,3,0,3,0,4,3,0,7,3,7,3,1,4,0,0,0,0,0,0,0,0,0,0,0,0,0,0],"split_type":[0,0,0,0,0,0,0,0,0,0,0,0,0,0,0,0,0,0,0,0,0,0,0,0,0,0,0,0,0],"sum_hessian":[1.0580608E3,3.3144406E2,7.2661664E2,1.2837518E2,2.030689E2,3.8318112E2,3.4343555E2,9.676256E0,1.1869892E2,7.979941E1,1.23269485E2,1.4138463E2,2.417965E2,4.0639893E1,3.0279565E2,6.0870247E0,3.5892313E0,3.891069E1,4.0888714E1,5.1557003E1,7.171249E1,1.0123904E2,4.014559E1,2.2288763E2,1.8908863E1,2.5184357E1,1.5455535E1,3.0085852E2,1.9371364E0],"tree_param":{"num_deleted":"0","num_feature":"9","num_nodes":"29","size_leaf_vector":"1"}},{"base_weights":[3.075494E-2,-9.408778E-1,1.2896803E-1,2.48972E-1,-5.3447466E-2,-1.2229487E-1,2.2814913E-1,9.1889364E-1,-4.2603508E-2,-2.8288028E-1,5.043172E-1,-3.7069097E-1,2.7034357E-1,-2.9679328E-2,6.556584E-2,-6.781749E-2,-7.965094E-3,-5.9279263E-2,3.1911474E-2,-1.0212058E-1,2.1386204E-2,1.4753307E-2,-4.876676E-2],"categories":[],"categories_nodes":[],"categories_segments":[],"categories_sizes":[],"default_left":[0,0,0,0,0,0,0,0,0,0,0,0,0,0,0,0,0,0,0,0,0,0,0],"id":48,"left_children":[1,3,5,7,-1,9,11,13,-1,15,17,19,21,-1,-1,-1,-1,-1,-1,-1,-1,-1,-1],"loss_changes":[1.0427257E2,1.5686005E1,2.4762285E1,9.2624035E0,0E0,2.8561958E1,1.8134632E1,5.642144E0,0E0,2.9551825E1,1.4262322E1,6.4685524E1,2.0934978E1,0E0,0E0,0E0,0E0,0E0,0E0,0E0,0E0,0E0,0E0],"parents":[2147483647,0,0,1,1,2,2,3,3,5,5,6,6,7,7,9,9,10,10,11,11,12,12],"right_children":[2,4,6,8,-1,10,12,14,-1,16,18,20,22,-1,-1,-1,-1,-1,-1,-1,-1,-1,-1],"split_conditions":[-2.3230968E-1,-1.848955E0,6.0693246E-1,-7.9189605E-1,-5.3447466E-2,1E0,-8.689028E-1,-8.0308884E-1,-4.2603508E-2,-7.7622604E-1,-1.6974697E-1,1.402004E0,1.7111984E0,-2.9679328E-2,6.556584E-2,-6.781749E-2,-7.965094E-3,-5.9279263E-2,3.1911474E-2,-1.0212058E-1,2.1386204E-2,1.4753307E-2,-4.876676E-2],"split_indices":[0,0,0,3,0,1,3,3,0,3,4,0,0,0,0,0,0,0,0,0,0,0,0],"split_type":[0,0,0,0,0,0,0,0,0,0,0,0,0,0,0,0,0,0,0,0,0,0,0],"sum_hessian":[1.0892866E3,9.88163E1,9.9047034E2,9.465062E0,8.9351234E1,2.802196E2,7.1025073E2,6.03889E0,3.4261725E0,2.2371082E2,5.650879E1,4.5981728E1,6.6426904E2,1.0856481E0,4.953242E0,2.1550238E1,2.0216058E2,3.284165E0,5.3224625E1,1.4107123E1,3.1874605E1,6.524645E2,1.1804566E1],"tree_param":{"num_deleted":"0","num_feature":"9","num_nodes":"23","size_leaf_vector":"1"}},{"base_weights":[-4.374648E-3,-7.7989805E-1,1.1379964E-1,1.58326E-1,-8.52541E-1,1.8038821E-1,-8.230196E-2,-3.9495967E-2,3.7980936E-2,-5.3168632E-2,-4.3899003E-1,6.187307E-1,1.5581088E-1,-1.3281802E0,4.7417007E-2,2.3691518E-2,-5.534332E-2,4.403263E-2,-6.3113175E-2,-7.298586E-2,8.352582E-3,-8.3984725E-2,1.0202626E-2,-1.5384545E-2,1.0670957E-2],"categories":[],"categories_nodes":[],"categories_segments":[],"categories_sizes":[],"default_left":[0,0,0,0,0,0,0,0,0,0,0,0,0,0,0,0,0,0,0,0,0,0,0,0,0],"id":49,"left_children":[1,3,5,7,9,11,13,-1,-1,-1,15,17,19,21,23,-1,-1,-1,-1,-1,-1,-1,-1,-1,-1],"loss_changes":[9.7323494E1,9.77285E0,1.2056209E1,7.374903E0,1.0683617E1,7.27207E0,3.801485E1,0E0,0E0,0E0,2.9221685E1,1.9426006E1,1.2240205E1,1.2459137E1,1.2711016E1,0E0,0E0,0E0,0E0,0E0,0E0,0E0,0E0,0E0,0E0],"parents":[2147483647,0,0,1,1,2,2,3,3,4,4,5,5,6,6,10,10,11,11,12,12,13,13,14,14],"right_children":[2,4,6,8,10,12,14,-1,-1,-1,16,18,20,22,24,-1,-1,-1,-1,-1,-1,-1,-1,-1,-1],"split_conditions":[7.68848E-2,-1.848955E0,5.354302E-1,-1.8524888E0,-2.3230968E-1,-1.0672451E0,6.6364425E-1,-3.9495967E-2,3.7980936E-2,-5.3168632E-2,-1.439684E-1,1E0,-9.9031675E-1,1E0,9.585365E-1,2.3691518E-2,-5.534332E-2,4.403263E-2,-6.3113175E-2,-7.298586E-2,8.352582E-3,-8.3984725E-2,1.0202626E-2,-1.5384545E-2,1.0670957E-2],"split_indices":[0,0,4,0,0,4,4,0,0,0,0,6,4,2,4,0,0,0,0,0,0,0,0,0,0],"split_type":[0,0,0,0,0,0,0,0,0,0,0,0,0,0,0,0,0,0,0,0,0,0,0,0,0],"sum_hessian":[1.0589869E3,1.3891997E2,9.20067E2,9.855936E0,1.2906403E2,6.869316E2,2.3313542E2,3.6419642E0,6.2139716E0,8.3922615E1,4.5141407E1,3.454534E1,6.523862E2,2.067785E1,2.1245758E2,1.9257298E1,2.5884111E1,3.1023193E1,3.5221477E0,3.1723077E0,6.492139E2,1.6701866E1,3.9759853E0,6.7271545E1,1.4518604E2],"tree_param":{"num_deleted":"0","num_feature":"9","num_nodes":"25","size_leaf_vector":"1"}},{"base_weights":[5.293659E-2,1.3088569E-1,-1.2583397E-1,5.248835E-2,4.9679798E-1,-2.7171868E-1,6.243107E-1,9.859489E-2,-1.1322328E0,5.839188E-1,-1.2923771E-1,-9.260031E-2,-1.782404E-1,6.8547434E-1,-4.9790617E-2,2.194554E-3,3.746285E-2,-1.1448976E-1,1.1344518E-2,2.0948453E-2,5.2076966E-2,3.2740712E-2,-1.1201095E-1,-1.6031163E-2,1.2566519E-2,1.344E-2,5.073846E-2],"categories":[],"categories_nodes":[],"categories_segments":[],"categories_sizes":[],"default_left":[0,0,0,0,0,0,0,0,0,0,0,0,0,0,0,0,0,0,0,0,0,0,0,0,0,0,0],"id":50,"left_children":[1,3,5,7,9,11,13,15,17,19,21,-1,23,25,-1,-1,-1,-1,-1,-1,-1,-1,-1,-1,-1,-1,-1],"loss_changes":[1.4920853E1,2.1336117E1,3.58582E1,3.3778942E1,7.2743607E0,3.9894844E1,6.317898E0,2.1081264E1,3.723249E1,8.066254E0,3.0780981E1,0E0,1.6011612E1,6.7764072E0,0E0,0E0,0E0,0E0,0E0,0E0,0E0,0E0,0E0,0E0,0E0,0E0,0E0],"parents":[2147483647,0,0,1,1,2,2,3,3,4,4,5,5,6,6,7,7,8,8,9,9,10,10,12,12,13,13],"right_children":[2,4,6,8,10,12,14,16,18,20,22,-1,24,26,-1,-1,-1,-1,-1,-1,-1,-1,-1,-1,-1,-1,-1],"split_conditions":[4.0721616E-1,2.1489511E-1,1E0,1.5078811E-1,1E0,4.8414457E-1,1.5226783E0,9.95025E-2,1E0,1E0,2.9182354E-1,-9.260031E-2,1E0,8.764795E-1,-4.9790617E-2,2.194554E-3,3.746285E-2,-1.1448976E-1,1.1344518E-2,2.0948453E-2,5.2076966E-2,3.2740712E-2,-1.1201095E-1,-1.6031163E-2,1.2566519E-2,1.344E-2,5.073846E-2],"split_indices":[4,4,2,4,1,4,4,4,6,8,4,0,1,4,0,0,0,0,0,0,0,0,0,0,0,0,0],"split_type":[0,0,0,0,0,0,0,0,0,0,0,0,0,0,0,0,0,0,0,0,0,0,0,0,0,0,0],"sum_hessian":[1.0674734E3,7.436308E2,3.238426E2,6.138315E2,1.2979929E2,2.719179E2,5.1924683E1,5.9216113E2,2.1670341E1,1.14031296E2,1.5767999E1,1.3610402E1,2.583075E2,5.086958E1,1.0551018E0,5.477138E2,4.4447346E1,1.1148256E1,1.0522085E1,8.593076E1,2.810053E1,1.2252087E1,3.5159116E0,1.9428983E2,6.401767E1,2.3658129E1,2.7211452E1],"tree_param":{"num_deleted":"0","num_feature":"9","num_nodes":"27","size_leaf_vector":"1"}},{"base_weights":[8.436796E-3,-9.7305745E-1,1.3183208E-1,2.7507886E-1,-5.410414E-2,-8.0342233E-1,1.576827E-1,-3.9211385E-2,4.946952E-2,-7.3840596E-2,-3.444854E-2,1.7164844E-1,-7.2651975E-2,3.1952675E-2,-8.563175E-2,7.3233144E-3,5.4345783E-2],"categories":[],"categories_nodes":[],"categories_segments":[],"categories_sizes":[],"default_left":[0,0,0,0,0,0,0,0,0,0,0,0,0,0,0,0,0],"id":51,"left_children":[1,3,5,7,-1,9,11,-1,-1,-1,13,15,-1,-1,-1,-1,-1],"loss_changes":[1.2622506E2,1.6285713E1,2.257139E1,9.144203E0,0E0,1.2944416E1,2.0666517E1,0E0,0E0,0E0,1.664627E1,2.040508E1,0E0,0E0,0E0,0E0,0E0],"parents":[2147483647,0,0,1,1,2,2,3,3,5,5,6,6,10,10,11,11],"right_children":[2,4,6,8,-1,10,12,-1,-1,-1,14,16,-1,-1,-1,-1,-1],"split_conditions":[-1.1456483E-2,-1.848955E0,-9.5185256E-1,-1.8524888E0,-5.410414E-2,1.4461746E0,2.6766045E0,-3.9211385E-2,4.946952E-2,-7.3840596E-2,1.5786865E0,2.1252842E0,-7.2651975E-2,3.1952675E-2,-8.563175E-2,7.3233144E-3,5.4345783E-2],"split_indices":[0,0,4,0,0,0,4,0,0,0,0,4,0,0,0,0,0],"split_type":[0,0,0,0,0,0,0,0,0,0,0,0,0,0,0,0,0],"sum_hessian":[1.039131E3,1.1489779E2,9.2423315E2,9.046596E0,1.058512E2,2.3645325E1,9.005878E2,3.5843189E0,5.4622765E0,1.1870017E1,1.1775308E1,8.9417505E2,6.4127784E0,9.065767E0,2.7095401E0,8.719254E2,2.2249634E1],"tree_param":{"num_deleted":"0","num_feature":"9","num_nodes":"17","size_leaf_vector":"1"}},{"base_weights":[5.3443443E-2,-9.1513795E-1,1.3886844E-1,2.6232654E-1,-5.264916E-2,2.512221E-2,4.0023986E-1,4.573612E-2,-4.1885693E-2,-9.754548E-2,3.201456E-1,5.536749E-1,2.9509088E-1,2.3520052E-2,-8.399052E-3,2.955305E-2,7.963021E-3,2.315565E-2,5.1139113E-2,-6.323796E-2,1.9351019E-2],"categories":[],"categories_nodes":[],"categories_segments":[],"categories_sizes":[],"default_left":[0,0,0,0,0,0,0,0,0,0,0,0,0,0,0,0,0,0,0,0,0],"id":52,"left_children":[1,3,5,7,-1,9,11,-1,-1,13,15,17,19,-1,-1,-1,-1,-1,-1,-1,-1],"loss_changes":[8.893769E1,1.4556007E1,2.9327232E1,8.564271E0,0E0,2.4991995E1,4.581646E0,0E0,0E0,1.9640533E1,8.697231E0,4.3850403E0,2.6650394E1,0E0,0E0,0E0,0E0,0E0,0E0,0E0,0E0],"parents":[2147483647,0,0,1,1,2,2,3,3,5,5,6,6,9,9,10,10,11,11,12,12],"right_children":[2,4,6,8,-1,10,12,-1,-1,14,16,18,20,-1,-1,-1,-1,-1,-1,-1,-1],"split_conditions":[-2.3230968E-1,-1.848955E0,1.3578334E0,-7.9189605E-1,-5.264916E-2,1.2610964E0,-5.344605E-1,4.573612E-2,-4.1885693E-2,-9.2553866E-1,2.0622804E0,-5.781126E-1,-4.3148628E-1,2.3520052E-2,-8.399052E-3,2.955305E-2,7.963021E-3,2.315565E-2,5.1139113E-2,-6.323796E-2,1.9351019E-2],"split_indices":[0,0,0,3,0,3,3,0,0,3,3,3,3,0,0,0,0,0,0,0,0],"split_type":[0,0,0,0,0,0,0,0,0,0,0,0,0,0,